<?xml version="1.0"?>
<NeuralNetwork xmlns:xsi="http://www.w3.org/2001/XMLSchema-instance" xmlns:xsd="http://www.w3.org/2001/XMLSchema">
  <sampleNeuron>
    <SampleNeuron>
      <signal>
        <Values>
          <float>0.222168431</float>
          <float>0.124414332</float>
          <float>0.248828664</float>
          <float>0.293262333</float>
          <float>0.159961283</float>
          <float>0.1421878</float>
          <float>0.255176336</float>
          <float>0.255176336</float>
          <float>0.08505878</float>
          <float>0.170117557</float>
          <float>0.08505878</float>
          <float>0.3402351</float>
          <float>0.198470473</float>
          <float>0.180427715</float>
          <float>0.216513246</float>
          <float>0.334918916</float>
          <float>0.09303303</float>
          <float>0.167459458</float>
          <float>0.357246876</float>
          <float>0</float>
          <float>0.238164574</float>
        </Values>
      </signal>
      <resultNeuronIndex>2</resultNeuronIndex>
    </SampleNeuron>
    <SampleNeuron>
      <signal>
        <Values>
          <float>0.287309647</float>
          <float>0.113182582</float>
          <float>0.1828334</float>
          <float>0.3134287</float>
          <float>0.174127042</float>
          <float>0.0957698748</float>
          <float>0.333328933</float>
          <float>0.08333223</float>
          <float>0.166664466</float>
          <float>0.166664466</float>
          <float>0.08333223</float>
          <float>0.333328933</float>
          <float>0.282824546</float>
          <float>0.1590888</float>
          <float>0.141412273</float>
          <float>0.382807434</float>
          <float>0.109373555</float>
          <float>0.09114463</float>
          <float>0.116665125</float>
          <float>0.116665125</float>
          <float>0.349995375</float>
        </Values>
      </signal>
      <resultNeuronIndex>0</resultNeuronIndex>
    </SampleNeuron>
    <SampleNeuron>
      <signal>
        <Values>
          <float>0.18492949</float>
          <float>0.1479436</float>
          <float>0.286640733</float>
          <float>0.2589013</float>
          <float>0.101711221</float>
          <float>0.2589013</float>
          <float>0.17700395</float>
          <float>0.17700395</float>
          <float>0.2655059</float>
          <float>0.0885019749</float>
          <float>0.3540079</float>
          <float>0.17700395</float>
          <float>0.218651935</float>
          <float>0.09110498</float>
          <float>0.3097569</float>
          <float>0.236872941</float>
          <float>0.200430945</float>
          <float>0.182209954</float>
          <float>0.123902768</float>
          <float>0.247805536</float>
          <float>0.247805536</float>
        </Values>
      </signal>
      <resultNeuronIndex>2</resultNeuronIndex>
    </SampleNeuron>
    <SampleNeuron>
      <signal>
        <Values>
          <float>0.236139</float>
          <float>0.09990496</float>
          <float>0.2724681</float>
          <float>0.227056727</float>
          <float>0.199809924</float>
          <float>0.181645378</float>
          <float>0.3477212</float>
          <float>0.0869303</float>
          <float>0.1738606</float>
          <float>0.152128011</float>
          <float>0.0760640055</float>
          <float>0.38032</float>
          <float>0.139088467</float>
          <float>0.243404821</float>
          <float>0.226018757</float>
          <float>0.304256022</float>
          <float>0.125281885</float>
          <float>0.178974137</float>
          <float>0.12170241</float>
          <float>0.243404821</float>
          <float>0.243404821</float>
        </Values>
      </signal>
      <resultNeuronIndex>2</resultNeuronIndex>
    </SampleNeuron>
    <SampleNeuron>
      <signal>
        <Values>
          <float>0.295007229</float>
          <float>0.11279688</float>
          <float>0.173533648</float>
          <float>0.147503614</float>
          <float>0.11279688</float>
          <float>0.3210373</float>
          <float>0.0830482543</float>
          <float>0.166096509</float>
          <float>0.332193017</float>
          <float>0.166096509</float>
          <float>0.166096509</float>
          <float>0.249144763</float>
          <float>0.06839268</float>
          <float>0.119687185</float>
          <float>0.3932579</float>
          <float>0.332193017</float>
          <float>0.0664386</float>
          <float>0.182706162</float>
          <float>0.3488027</float>
          <float>0.116267554</float>
          <float>0.116267554</float>
        </Values>
      </signal>
      <resultNeuronIndex>2</resultNeuronIndex>
    </SampleNeuron>
    <SampleNeuron>
      <signal>
        <Values>
          <float>0.341422379</float>
          <float>0.11658325</float>
          <float>0.0999285</float>
          <float>0.1531584</float>
          <float>0.175038159</float>
          <float>0.22973758</float>
          <float>0.159409747</float>
          <float>0.159409747</float>
          <float>0.239114627</float>
          <float>0.398524374</float>
          <float>0.07970487</float>
          <float>0.07970487</float>
          <float>0.08583602</float>
          <float>0.171672046</float>
          <float>0.300426066</float>
          <float>0.393835843</float>
          <float>0.131278619</float>
          <float>0.0328196548</float>
          <float>0</float>
          <float>0.37195608</float>
          <float>0.18597804</float>
        </Values>
      </signal>
      <resultNeuronIndex>0</resultNeuronIndex>
    </SampleNeuron>
    <SampleNeuron>
      <signal>
        <Values>
          <float>0.231302574</float>
          <float>0.195717558</float>
          <float>0.1690288</float>
          <float>0.29357636</float>
          <float>0.115651287</float>
          <float>0.186821312</float>
          <float>0.255449533</float>
          <float>0.0851498544</float>
          <float>0.255449533</float>
          <float>0.340599418</float>
          <float>0.0851498544</float>
          <float>0.170299709</float>
          <float>0.192839369</float>
          <float>0.122715957</float>
          <float>0.280493617</float>
          <float>0.316651</float>
          <float>0.149012238</float>
          <float>0.130385712</float>
          <float>0</float>
          <float>0.238419577</float>
          <float>0.3576294</float>
        </Values>
      </signal>
      <resultNeuronIndex>0</resultNeuronIndex>
    </SampleNeuron>
    <SampleNeuron>
      <signal>
        <Values>
          <float>0.180008277</float>
          <float>0.07875362</float>
          <float>0.326264977</float>
          <float>0.174634889</float>
          <float>0.139707908</float>
          <float>0.2706841</float>
          <float>0.08357527</float>
          <float>0.2507258</float>
          <float>0.2507258</float>
          <float>0.167150542</float>
          <float>0.167150542</float>
          <float>0.2507258</float>
          <float>0.127974629</float>
          <float>0.09141045</float>
          <float>0.3656418</float>
          <float>0.225010335</float>
          <float>0.09000414</float>
          <float>0.2700124</float>
          <float>0.195008963</float>
          <float>0</float>
          <float>0.390017927</float>
        </Values>
      </signal>
      <resultNeuronIndex>2</resultNeuronIndex>
    </SampleNeuron>
    <SampleNeuron>
      <signal>
        <Values>
          <float>0.161822915</float>
          <float>0.1168721</float>
          <float>0.32364583</float>
          <float>0.164274782</float>
          <float>0.146022022</float>
          <float>0.292044044</float>
          <float>0.1505852</float>
          <float>0.2258778</float>
          <float>0.2258778</float>
          <float>0.172097385</float>
          <float>0.172097385</float>
          <float>0.258146077</float>
          <float>0.1505852</float>
          <float>0.1505852</float>
          <float>0.3011704</float>
          <float>0.2372858</float>
          <float>0.109516516</float>
          <float>0.255538553</float>
          <float>0.200780287</float>
          <float>0</float>
          <float>0.401560575</float>
        </Values>
      </signal>
      <resultNeuronIndex>0</resultNeuronIndex>
    </SampleNeuron>
    <SampleNeuron>
      <signal>
        <Values>
          <float>0.2776764</float>
          <float>0.151459858</float>
          <float>0.134630978</float>
          <float>0.218775347</float>
          <float>0.08414436</float>
          <float>0.260847539</float>
          <float>0.140941814</float>
          <float>0</float>
          <float>0.422825426</float>
          <float>0.241614535</float>
          <float>0.241614535</float>
          <float>0.08053818</float>
          <float>0.153754711</float>
          <float>0.06833543</float>
          <float>0.341677129</float>
          <float>0.358760983</float>
          <float>0.136670858</float>
          <float>0.06833543</float>
          <float>0.338260353</float>
          <float>0.112753451</float>
          <float>0.112753451</float>
        </Values>
      </signal>
      <resultNeuronIndex>1</resultNeuronIndex>
    </SampleNeuron>
    <SampleNeuron>
      <signal>
        <Values>
          <float>0.182566226</float>
          <float>0.199953482</float>
          <float>0.199953482</float>
          <float>0.312970668</float>
          <float>0.09562992</float>
          <float>0.17387259</float>
          <float>0.332841843</float>
          <float>0.166420922</float>
          <float>0.08321046</float>
          <float>0.24963136</float>
          <float>0.332841843</float>
          <float>0</float>
          <float>0.236629725</float>
          <float>0.109213717</float>
          <float>0.236629725</float>
          <float>0.264760554</float>
          <float>0.229459137</float>
          <float>0.08825351</float>
          <float>0.232989267</float>
          <float>0</float>
          <float>0.3494839</float>
        </Values>
      </signal>
      <resultNeuronIndex>0</resultNeuronIndex>
    </SampleNeuron>
    <SampleNeuron>
      <signal>
        <Values>
          <float>0.308392227</float>
          <float>0.176224142</float>
          <float>0.09692328</float>
          <float>0.286429971</float>
          <float>0.112836048</float>
          <float>0.182273626</float>
          <float>0.166154191</float>
          <float>0.166154191</float>
          <float>0.249231279</float>
          <float>0.332308382</float>
          <float>0</float>
          <float>0.249231279</float>
          <float>0.2544236</float>
          <float>0.163558021</float>
          <float>0.163558021</float>
          <float>0.334825844</float>
          <float>0.193846554</float>
          <float>0.05286724</float>
          <float>0</float>
          <float>0.232615858</float>
          <float>0.3489238</float>
        </Values>
      </signal>
      <resultNeuronIndex>0</resultNeuronIndex>
    </SampleNeuron>
    <SampleNeuron>
      <signal>
        <Values>
          <float>0.281380862</float>
          <float>0.114310987</float>
          <float>0.193449348</float>
          <float>0.290174037</float>
          <float>0.1670699</float>
          <float>0.131897286</float>
          <float>0.2524891</float>
          <float>0.33665213</float>
          <float>0</float>
          <float>0.168326065</float>
          <float>0.08416303</float>
          <float>0.33665213</float>
          <float>0.214233175</float>
          <float>0.178527653</float>
          <float>0.1963804</float>
          <float>0.3927608</float>
          <float>0.107116587</float>
          <float>0.08926383</float>
          <float>0.117828242</float>
          <float>0.235656485</float>
          <float>0.235656485</float>
        </Values>
      </signal>
      <resultNeuronIndex>0</resultNeuronIndex>
    </SampleNeuron>
    <SampleNeuron>
      <signal>
        <Values>
          <float>0.296609432</float>
          <float>0.09322011</float>
          <float>0.177965671</float>
          <float>0.237287551</float>
          <float>0.09322011</float>
          <float>0.237287551</float>
          <float>0.162227213</float>
          <float>0.162227213</float>
          <float>0.2433408</float>
          <float>0.324454427</float>
          <float>0.162227213</float>
          <float>0.08111361</float>
          <float>0.217098162</float>
          <float>0.0834993</float>
          <float>0.267197728</float>
          <float>0.367396921</float>
          <float>0.0834993</float>
          <float>0.116899014</float>
          <float>0.113559045</float>
          <float>0</float>
          <float>0.45423618</float>
        </Values>
      </signal>
      <resultNeuronIndex>2</resultNeuronIndex>
    </SampleNeuron>
    <SampleNeuron>
      <signal>
        <Values>
          <float>0.226260319</float>
          <float>0.095725514</float>
          <float>0.2610696</float>
          <float>0.156976476</float>
          <float>0.179401681</float>
          <float>0.2466773</float>
          <float>0.09717591</float>
          <float>0.194351822</float>
          <float>0.291527718</float>
          <float>0.145763859</float>
          <float>0.07288193</float>
          <float>0.364409655</float>
          <float>0.08637858</float>
          <float>0.172757164</float>
          <float>0.3239197</float>
          <float>0.291527718</float>
          <float>0.102892138</float>
          <float>0.188635588</float>
          <float>0.388703644</float>
          <float>0</float>
          <float>0.194351822</float>
        </Values>
      </signal>
      <resultNeuronIndex>0</resultNeuronIndex>
    </SampleNeuron>
    <SampleNeuron>
      <signal>
        <Values>
          <float>0.193335846</float>
          <float>0.147303492</float>
          <float>0.276194066</float>
          <float>0.165716439</float>
          <float>0.119684093</float>
          <float>0.331432879</float>
          <float>0.264357179</float>
          <float>0.17623812</float>
          <float>0.17623812</float>
          <float>0.17623812</float>
          <float>0.264357179</float>
          <float>0.17623812</float>
          <float>0.0907108</float>
          <float>0.126995116</float>
          <float>0.3991275</float>
          <float>0.235848069</float>
          <float>0.199563757</float>
          <float>0.1814216</float>
          <float>0.246733367</float>
          <float>0.123366684</float>
          <float>0.246733367</float>
        </Values>
      </signal>
      <resultNeuronIndex>1</resultNeuronIndex>
    </SampleNeuron>
    <SampleNeuron>
      <signal>
        <Values>
          <float>0.164072067</float>
          <float>0.145841837</float>
          <float>0.291683674</float>
          <float>0.28733018</float>
          <float>0.116727889</float>
          <float>0.1975395</float>
          <float>0.0859425142</float>
          <float>0.171885028</float>
          <float>0.343770057</float>
          <float>0.150399387</float>
          <float>0.2255991</float>
          <float>0.2255991</float>
          <float>0.244399011</float>
          <float>0.169199318</float>
          <float>0.187999249</float>
          <float>0.187999249</float>
          <float>0.150399387</float>
          <float>0.263198942</float>
          <float>0.401065052</float>
          <float>0</float>
          <float>0.200532526</float>
        </Values>
      </signal>
      <resultNeuronIndex>0</resultNeuronIndex>
    </SampleNeuron>
    <SampleNeuron>
      <signal>
        <Values>
          <float>0.326598167</float>
          <float>0.12247432</float>
          <float>0.0979794562</float>
          <float>0.179629</float>
          <float>0.18779397</float>
          <float>0.179629</float>
          <float>0.234450847</float>
          <float>0.312601149</float>
          <float>0</float>
          <float>0.390751421</float>
          <float>0.156300575</float>
          <float>0</float>
          <float>0.099464</float>
          <float>0.165773332</float>
          <float>0.281814635</float>
          <float>0.386154324</float>
          <float>0.128718108</float>
          <float>0.032179527</float>
          <float>0.3282312</float>
          <float>0.218820781</float>
          <float>0</float>
        </Values>
      </signal>
      <resultNeuronIndex>1</resultNeuronIndex>
    </SampleNeuron>
    <SampleNeuron>
      <signal>
        <Values>
          <float>0.225372091</float>
          <float>0.190699458</float>
          <float>0.16469498</float>
          <float>0.31205368</float>
          <float>0.173363134</float>
          <float>0.09534973</float>
          <float>0.414833248</float>
          <float>0</float>
          <float>0.1659333</float>
          <float>0.3318666</float>
          <float>0.08296665</float>
          <float>0.1659333</float>
          <float>0.2815838</float>
          <float>0.15839088</float>
          <float>0.1407919</float>
          <float>0.3085322</float>
          <float>0.145191625</float>
          <float>0.127042681</float>
          <float>0.116153307</float>
          <float>0.116153307</float>
          <float>0.348459929</float>
        </Values>
      </signal>
      <resultNeuronIndex>0</resultNeuronIndex>
    </SampleNeuron>
    <SampleNeuron>
      <signal>
        <Values>
          <float>0.2657748</float>
          <float>0.111453943</float>
          <float>0.197187752</float>
          <float>0.180040985</float>
          <float>0.137174085</float>
          <float>0.2572014</float>
          <float>0.16411899</float>
          <float>0.2461785</float>
          <float>0.16411899</float>
          <float>0.0820594952</float>
          <float>0.0820594952</float>
          <float>0.410297483</float>
          <float>0.143604115</float>
          <float>0.07180206</float>
          <float>0.359010279</float>
          <float>0.304102838</float>
          <float>0.0675784051</float>
          <float>0.20273523</float>
          <float>0.344649881</float>
          <float>0</float>
          <float>0.229766592</float>
        </Values>
      </signal>
      <resultNeuronIndex>2</resultNeuronIndex>
    </SampleNeuron>
    <SampleNeuron>
      <signal>
        <Values>
          <float>0.234545842</float>
          <float>0.08896566</float>
          <float>0.218370274</float>
          <float>0.315423727</float>
          <float>0.1294046</float>
          <float>0.09705345</float>
          <float>0.309646755</float>
          <float>0.232235059</float>
          <float>0</float>
          <float>0.232235059</float>
          <float>0.154823378</float>
          <float>0.154823378</float>
          <float>0.262730569</float>
          <float>0.114944622</float>
          <float>0.164206609</float>
          <float>0.2463099</float>
          <float>0.09852397</float>
          <float>0.197047934</float>
          <float>0</float>
          <float>0</float>
          <float>0.5418818</float>
        </Values>
      </signal>
      <resultNeuronIndex>2</resultNeuronIndex>
    </SampleNeuron>
    <SampleNeuron>
      <signal>
        <Values>
          <float>0.28099516</float>
          <float>0.166840881</float>
          <float>0.14049758</float>
          <float>0.237089664</float>
          <float>0.193184167</float>
          <float>0.158059791</float>
          <float>0.420238316</float>
          <float>0</float>
          <float>0.168095335</float>
          <float>0.168095335</float>
          <float>0.336190671</float>
          <float>0.08404767</float>
          <float>0.155735388</float>
          <float>0.242255032</float>
          <float>0.190343246</float>
          <float>0.356565833</float>
          <float>0.160454631</float>
          <float>0.07131317</float>
          <float>0.235333458</float>
          <float>0.117666729</float>
          <float>0.235333458</float>
        </Values>
      </signal>
      <resultNeuronIndex>0</resultNeuronIndex>
    </SampleNeuron>
    <SampleNeuron>
      <signal>
        <Values>
          <float>0.16105777</float>
          <float>0.07046278</float>
          <float>0.312049448</float>
          <float>0.283954471</float>
          <float>0.08112985</float>
          <float>0.178485662</float>
          <float>0.23295857</float>
          <float>0.155305713</float>
          <float>0.155305713</float>
          <float>0.07765286</float>
          <float>0.155305713</float>
          <float>0.310611427</float>
          <float>0.220825315</float>
          <float>0.08493281</float>
          <float>0.237811863</float>
          <float>0.201322213</float>
          <float>0.0805288851</float>
          <float>0.2617189</float>
          <float>0</float>
          <float>0</float>
          <float>0.54357</float>
        </Values>
      </signal>
      <resultNeuronIndex>0</resultNeuronIndex>
    </SampleNeuron>
    <SampleNeuron>
      <signal>
        <Values>
          <float>0.309521824</float>
          <float>0.163358733</float>
          <float>0.103173941</float>
          <float>0.174561977</float>
          <float>0.13964957</float>
          <float>0.261842966</float>
          <float>0.164587</float>
          <float>0.2468805</float>
          <float>0.164587</float>
          <float>0.329174</float>
          <float>0</float>
          <float>0.2468805</float>
          <float>0.144013628</float>
          <float>0.144013628</float>
          <float>0.288027257</float>
          <float>0.349123955</float>
          <float>0.174561977</float>
          <float>0.0523685925</float>
          <float>0.192018166</float>
          <float>0.384036332</float>
          <float>0</float>
        </Values>
      </signal>
      <resultNeuronIndex>0</resultNeuronIndex>
    </SampleNeuron>
    <SampleNeuron>
      <signal>
        <Values>
          <float>0.185810342</float>
          <float>0.212354675</float>
          <float>0.194658443</float>
          <float>0.224554345</float>
          <float>0.116768263</float>
          <float>0.251500875</float>
          <float>0.19760783</float>
          <float>0.0988039151</float>
          <float>0.296411723</float>
          <float>0.169378147</float>
          <float>0.423445344</float>
          <float>0</float>
          <float>0.107786089</float>
          <float>0.143714786</float>
          <float>0.3413226</float>
          <float>0.2694652</float>
          <float>0.233536527</float>
          <float>0.08982174</float>
          <float>0.23712939</float>
          <float>0.23712939</float>
          <float>0.118564695</float>
        </Values>
      </signal>
      <resultNeuronIndex>0</resultNeuronIndex>
    </SampleNeuron>
    <SampleNeuron>
      <signal>
        <Values>
          <float>0.154278219</float>
          <float>0.17631796</float>
          <float>0.253457069</float>
          <float>0.28766802</float>
          <float>0.11332377</float>
          <float>0.183061466</float>
          <float>0.166872367</float>
          <float>0.08343618</float>
          <float>0.333744735</float>
          <float>0.0973422155</float>
          <float>0.0973422155</float>
          <float>0.389368862</float>
          <float>0.171780378</float>
          <float>0.120246261</float>
          <float>0.292026639</float>
          <float>0.2336213</float>
          <float>0.186897039</float>
          <float>0.163534909</float>
          <float>0.389368862</float>
          <float>0</float>
          <float>0.194684431</float>
        </Values>
      </signal>
      <resultNeuronIndex>2</resultNeuronIndex>
    </SampleNeuron>
    <SampleNeuron>
      <signal>
        <Values>
          <float>0.1391468</float>
          <float>0.159024924</float>
          <float>0.238537386</float>
          <float>0.203298911</float>
          <float>0.09758348</float>
          <float>0.235826731</float>
          <float>0.153345466</float>
          <float>0.07667273</float>
          <float>0.306690931</float>
          <float>0.07667273</float>
          <float>0.07667273</float>
          <float>0.383363664</float>
          <float>0.094713375</float>
          <float>0.1262845</float>
          <float>0.31571126</float>
          <float>0.206426591</float>
          <float>0.16514127</float>
          <float>0.16514127</float>
          <float>0</float>
          <float>0</float>
          <float>0.53670913</float>
        </Values>
      </signal>
      <resultNeuronIndex>0</resultNeuronIndex>
    </SampleNeuron>
    <SampleNeuron>
      <signal>
        <Values>
          <float>0.297476262</float>
          <float>0.08749302</float>
          <float>0.201233953</float>
          <float>0.166236743</float>
          <float>0.122490227</float>
          <float>0.297476262</float>
          <float>0.251229942</float>
          <float>0.167486638</float>
          <float>0.167486638</float>
          <float>0.167486638</float>
          <float>0.167486638</float>
          <float>0.251229942</float>
          <float>0.08620636</float>
          <float>0.13793017</float>
          <float>0.3620667</float>
          <float>0.3620667</float>
          <float>0.08620636</float>
          <float>0.13793017</float>
          <float>0.351721942</float>
          <float>0</float>
          <float>0.23448129</float>
        </Values>
      </signal>
      <resultNeuronIndex>2</resultNeuronIndex>
    </SampleNeuron>
    <SampleNeuron>
      <signal>
        <Values>
          <float>0.176007017</float>
          <float>0.134100571</float>
          <float>0.2514386</float>
          <float>0.170165509</float>
          <float>0.119115859</float>
          <float>0.2722648</float>
          <float>0.160441771</float>
          <float>0.160441771</float>
          <float>0.240662649</float>
          <float>0.240662649</float>
          <float>0.160441771</float>
          <float>0.160441771</float>
          <float>0.140386537</float>
          <float>0.105289906</float>
          <float>0.315869719</float>
          <float>0.198192775</float>
          <float>0.198192775</float>
          <float>0.165160641</float>
          <float>0.561546147</float>
          <float>0</float>
          <float>0</float>
        </Values>
      </signal>
      <resultNeuronIndex>1</resultNeuronIndex>
    </SampleNeuron>
    <SampleNeuron>
      <signal>
        <Values>
          <float>0.323706448</float>
          <float>0.129482582</float>
          <float>0.0890192762</float>
          <float>0.167591661</float>
          <float>0.06900833</float>
          <float>0.305608332</float>
          <float>0.154916674</float>
          <float>0.07745834</float>
          <float>0.309833348</float>
          <float>0.309833348</float>
          <float>0.232375</float>
          <float>0</float>
          <float>0.120490737</float>
          <float>0.06024537</float>
          <float>0.361472219</float>
          <float>0.36678797</float>
          <float>0.143525735</float>
          <float>0.0318946056</float>
          <float>0.361472219</float>
          <float>0.18073611</float>
          <float>0</float>
        </Values>
      </signal>
      <resultNeuronIndex>0</resultNeuronIndex>
    </SampleNeuron>
    <SampleNeuron>
      <signal>
        <Values>
          <float>0.279700935</float>
          <float>0.161039934</float>
          <float>0.1271368</float>
          <float>0.3051283</float>
          <float>0.161039934</float>
          <float>0.101709433</float>
          <float>0.4056269</float>
          <float>0</float>
          <float>0.162250757</float>
          <float>0.243376136</float>
          <float>0.243376136</float>
          <float>0.08112538</float>
          <float>0.267236531</float>
          <float>0.15032056</float>
          <float>0.15032056</float>
          <float>0.350747943</float>
          <float>0.15032056</float>
          <float>0.06680913</float>
          <float>0.227151066</float>
          <float>0.3407266</float>
          <float>0</float>
        </Values>
      </signal>
      <resultNeuronIndex>1</resultNeuronIndex>
    </SampleNeuron>
    <SampleNeuron>
      <signal>
        <Values>
          <float>0.2275728</float>
          <float>0.109234951</float>
          <float>0.273087382</float>
          <float>0.200264066</float>
          <float>0.2184699</float>
          <float>0.191161171</float>
          <float>0.261383623</float>
          <float>0.348511517</float>
          <float>0</float>
          <float>0.261383623</float>
          <float>0.174255759</float>
          <float>0.174255759</float>
          <float>0.110890023</float>
          <float>0.20329839</float>
          <float>0.295706749</float>
          <float>0.304947555</float>
          <float>0.107628554</float>
          <float>0.197319016</float>
          <float>0.243958056</float>
          <float>0.243958056</float>
          <float>0.121979028</float>
        </Values>
      </signal>
      <resultNeuronIndex>0</resultNeuronIndex>
    </SampleNeuron>
    <SampleNeuron>
      <signal>
        <Values>
          <float>0.2137288</float>
          <float>0.102589831</float>
          <float>0.256474584</float>
          <float>0.247925416</float>
          <float>0.08549152</float>
          <float>0.239376262</float>
          <float>0.2454828</float>
          <float>0.0818276</float>
          <float>0.2454828</float>
          <float>0.0818276</float>
          <float>0.0818276</float>
          <float>0.409138024</float>
          <float>0.235856026</float>
          <float>0.0842343</float>
          <float>0.2527029</float>
          <float>0.340095967</float>
          <float>0.07159915</float>
          <float>0.1610981</float>
          <float>0</float>
          <float>0.229117289</float>
          <float>0.343675941</float>
        </Values>
      </signal>
      <resultNeuronIndex>1</resultNeuronIndex>
    </SampleNeuron>
    <SampleNeuron>
      <signal>
        <Values>
          <float>0.211323515</float>
          <float>0.172189534</float>
          <float>0.140882358</float>
          <float>0.143016934</float>
          <float>0.152551383</float>
          <float>0.228827089</float>
          <float>0.149827272</float>
          <float>0</float>
          <float>0.374568164</float>
          <float>0.299654543</float>
          <float>0</float>
          <float>0.2247409</float>
          <float>0.0749136358</float>
          <float>0.149827272</float>
          <float>0.299654543</float>
          <float>0.29497242</float>
          <float>0.131098852</float>
          <float>0.0983241349</float>
          <float>0</float>
          <float>0.5243954</float>
          <float>0</float>
        </Values>
      </signal>
      <resultNeuronIndex>0</resultNeuronIndex>
    </SampleNeuron>
    <SampleNeuron>
      <signal>
        <Values>
          <float>0.288576365</float>
          <float>0.152304187</float>
          <float>0.0961921141</float>
          <float>0.1603202</float>
          <float>0.136272162</float>
          <float>0.240480289</float>
          <float>0.153449327</float>
          <float>0.23017399</float>
          <float>0.153449327</float>
          <float>0.306898654</float>
          <float>0.07672466</float>
          <float>0.153449327</float>
          <float>0.134268165</float>
          <float>0.06713408</float>
          <float>0.3356704</float>
          <float>0.325498581</float>
          <float>0.16274929</float>
          <float>0.0488247871</float>
          <float>0.537072659</float>
          <float>0</float>
          <float>0</float>
        </Values>
      </signal>
      <resultNeuronIndex>0</resultNeuronIndex>
    </SampleNeuron>
    <SampleNeuron>
      <signal>
        <Values>
          <float>0.158405781</float>
          <float>0.116720051</float>
          <float>0.283462971</float>
          <float>0.341823</float>
          <float>0.1250572</float>
          <float>0.09170861</float>
          <float>0.319193631</float>
          <float>0.2393952</float>
          <float>0</float>
          <float>0.319193631</float>
          <float>0.159596816</float>
          <float>0.07979841</float>
          <float>0.287757874</float>
          <float>0.118488535</float>
          <float>0.152342409</float>
          <float>0.236977071</float>
          <float>0.101561606</float>
          <float>0.220050141</float>
          <float>0.111717761</float>
          <float>0</float>
          <float>0.446871042</float>
        </Values>
      </signal>
      <resultNeuronIndex>2</resultNeuronIndex>
    </SampleNeuron>
    <SampleNeuron>
      <signal>
        <Values>
          <float>0.17428036</float>
          <float>0.0717625</float>
          <float>0.32805717</float>
          <float>0.214216411</float>
          <float>0.111392535</float>
          <float>0.248491049</float>
          <float>0.08201429</float>
          <float>0.164028585</float>
          <float>0.32805717</float>
          <float>0.164028585</float>
          <float>0.08201429</float>
          <float>0.32805717</float>
          <float>0.101311766</float>
          <float>0.135082349</float>
          <float>0.3377059</float>
          <float>0.225539282</float>
          <float>0.08201429</float>
          <float>0.266546428</float>
          <float>0.382733345</float>
          <float>0</float>
          <float>0.191366673</float>
        </Values>
      </signal>
      <resultNeuronIndex>1</resultNeuronIndex>
    </SampleNeuron>
    <SampleNeuron>
      <signal>
        <Values>
          <float>0.274352729</float>
          <float>0.1114558</float>
          <float>0.1886175</float>
          <float>0.282926261</float>
          <float>0.0857352242</float>
          <float>0.205764547</float>
          <float>0.0820608661</float>
          <float>0.164121732</float>
          <float>0.328243464</float>
          <float>0.164121732</float>
          <float>0</float>
          <float>0.4103043</float>
          <float>0.215409756</float>
          <float>0.08975407</float>
          <float>0.2692622</float>
          <float>0.3041079</float>
          <float>0.06757953</float>
          <float>0.2027386</float>
          <float>0.1148852</float>
          <float>0.1148852</float>
          <float>0.344655633</float>
        </Values>
      </signal>
      <resultNeuronIndex>0</resultNeuronIndex>
    </SampleNeuron>
    <SampleNeuron>
      <signal>
        <Values>
          <float>0.155204281</float>
          <float>0.165551245</float>
          <float>0.2586738</float>
          <float>0.285390556</float>
          <float>0.164315775</float>
          <float>0.129722983</float>
          <float>0.165551245</float>
          <float>0.3311025</float>
          <float>0.08277562</float>
          <float>0.165551245</float>
          <float>0</float>
          <float>0.413878083</float>
          <float>0.21070157</float>
          <float>0.175584644</float>
          <float>0.193143114</float>
          <float>0.2360638</float>
          <float>0.17168276</float>
          <float>0.17168276</float>
          <float>0</float>
          <float>0.193143114</float>
          <float>0.386286229</float>
        </Values>
      </signal>
      <resultNeuronIndex>1</resultNeuronIndex>
    </SampleNeuron>
    <SampleNeuron>
      <signal>
        <Values>
          <float>0.254888535</float>
          <float>0.100134775</float>
          <float>0.254888535</float>
          <float>0.236682191</float>
          <float>0.109237932</float>
          <float>0.263991684</float>
          <float>0.261390775</float>
          <float>0.174260527</float>
          <float>0.174260527</float>
          <float>0.174260527</float>
          <float>0.174260527</float>
          <float>0.261390775</float>
          <float>0.147857413</float>
          <float>0.110893056</float>
          <float>0.351161331</float>
          <float>0.277232647</float>
          <float>0.0924108848</float>
          <float>0.24026829</float>
          <float>0.121982366</float>
          <float>0.121982366</float>
          <float>0.3659471</float>
        </Values>
      </signal>
      <resultNeuronIndex>1</resultNeuronIndex>
    </SampleNeuron>
    <SampleNeuron>
      <signal>
        <Values>
          <float>0.183209419</float>
          <float>0.209382191</float>
          <float>0.191933662</float>
          <float>0.28366667</float>
          <float>0.120343439</float>
          <float>0.180515155</float>
          <float>0.250510842</float>
          <float>0.167007223</float>
          <float>0.167007223</float>
          <float>0.167007223</float>
          <float>0.334014446</float>
          <float>0.08350361</float>
          <float>0.1719192</float>
          <float>0.120343439</float>
          <float>0.292262644</float>
          <float>0.2656933</float>
          <float>0.23026754</float>
          <float>0.08856443</float>
          <float>0.116905056</float>
          <float>0</float>
          <float>0.467620224</float>
        </Values>
      </signal>
      <resultNeuronIndex>0</resultNeuronIndex>
    </SampleNeuron>
    <SampleNeuron>
      <signal>
        <Values>
          <float>0.274383664</float>
          <float>0.120042861</float>
          <float>0.180064291</float>
          <float>0.23151122</float>
          <float>0.102893874</float>
          <float>0.240085721</float>
          <float>0.164140239</float>
          <float>0.246210352</float>
          <float>0.164140239</float>
          <float>0.246210352</float>
          <float>0.08207012</float>
          <float>0.246210352</float>
          <float>0.219658256</float>
          <float>0.101380736</float>
          <float>0.253451824</float>
          <float>0.382993877</float>
          <float>0.121861689</float>
          <float>0.06963525</float>
          <float>0.45959267</float>
          <float>0</float>
          <float>0.114898168</float>
        </Values>
      </signal>
      <resultNeuronIndex>0</resultNeuronIndex>
    </SampleNeuron>
    <SampleNeuron>
      <signal>
        <Values>
          <float>0.256314456</float>
          <float>0.0800982639</float>
          <float>0.200245664</float>
          <float>0.162623763</float>
          <float>0.113836631</float>
          <float>0.260198</float>
          <float>0.153330967</float>
          <float>0.153330967</float>
          <float>0.229996443</float>
          <float>0.07666548</float>
          <float>0.07666548</float>
          <float>0.383327425</float>
          <float>0.1341646</float>
          <float>0.1341646</float>
          <float>0.2683292</float>
          <float>0.3156814</float>
          <float>0.07892035</float>
          <float>0.142056644</float>
          <float>0.5366584</float>
          <float>0</float>
          <float>0</float>
        </Values>
      </signal>
      <resultNeuronIndex>0</resultNeuronIndex>
    </SampleNeuron>
    <SampleNeuron>
      <signal>
        <Values>
          <float>0.142045513</float>
          <float>0.1609849</float>
          <float>0.2367425</float>
          <float>0.290027261</float>
          <float>0.153069928</float>
          <float>0.0966757461</float>
          <float>0.308441669</float>
          <float>0.07711042</float>
          <float>0.154220834</float>
          <float>0.07711042</float>
          <float>0.07711042</float>
          <float>0.385552078</float>
          <float>0.254010767</float>
          <float>0.142881066</float>
          <float>0.142881066</float>
          <float>0.212053642</float>
          <float>0.173498437</float>
          <float>0.154220834</float>
          <float>0</float>
          <float>0</float>
          <float>0.5397729</float>
        </Values>
      </signal>
      <resultNeuronIndex>0</resultNeuronIndex>
    </SampleNeuron>
    <SampleNeuron>
      <signal>
        <Values>
          <float>0.345466584</float>
          <float>0.123380922</float>
          <float>0.08225394</float>
          <float>0.271438032</float>
          <float>0.106930129</float>
          <float>0.172733292</float>
          <float>0.15745756</float>
          <float>0</float>
          <float>0.3936439</float>
          <float>0.314915121</float>
          <float>0.236186326</float>
          <float>0</float>
          <float>0.241106868</float>
          <float>0.154997274</float>
          <float>0.154997274</float>
          <float>0.389012784</float>
          <float>0.129670918</float>
          <float>0.03241773</float>
          <float>0.33066088</float>
          <float>0.110220283</float>
          <float>0.110220283</float>
        </Values>
      </signal>
      <resultNeuronIndex>0</resultNeuronIndex>
    </SampleNeuron>
    <SampleNeuron>
      <signal>
        <Values>
          <float>0.215300247</float>
          <float>0.120568149</float>
          <float>0.2411363</float>
          <float>0.1636282</float>
          <float>0.120568149</float>
          <float>0.292808354</float>
          <float>0.32971698</float>
          <float>0.0824292451</float>
          <float>0.16485849</float>
          <float>0.0824292451</float>
          <float>0.16485849</float>
          <float>0.32971698</float>
          <float>0.0848536342</float>
          <float>0.1357658</float>
          <float>0.356385261</float>
          <float>0.332214832</float>
          <float>0.0874249563</float>
          <float>0.15736492</float>
          <float>0.23080188</float>
          <float>0.346202821</float>
          <float>0</float>
        </Values>
      </signal>
      <resultNeuronIndex>0</resultNeuronIndex>
    </SampleNeuron>
    <SampleNeuron>
      <signal>
        <Values>
          <float>0.24144949</float>
          <float>0.181087121</float>
          <float>0.155217528</float>
          <float>0.181087121</float>
          <float>0.2069567</float>
          <float>0.1897103</float>
          <float>0.247608915</float>
          <float>0.247608915</float>
          <float>0.08253631</float>
          <float>0.49521783</float>
          <float>0</float>
          <float>0.08253631</float>
          <float>0.0875385</float>
          <float>0.192584708</float>
          <float>0.2976309</float>
          <float>0.3249867</float>
          <float>0.144438535</float>
          <float>0.1083289</float>
          <float>0.115550824</float>
          <float>0.231101647</float>
          <float>0.231101647</float>
        </Values>
      </signal>
      <resultNeuronIndex>1</resultNeuronIndex>
    </SampleNeuron>
    <SampleNeuron>
      <signal>
        <Values>
          <float>0.212761253</float>
          <float>0.110635854</float>
          <float>0.246803045</float>
          <float>0.1700597</float>
          <float>0.0800280944</float>
          <float>0.320112377</float>
          <float>0.162914336</float>
          <float>0.08145717</float>
          <float>0.325828671</float>
          <float>0.2443715</float>
          <float>0.2443715</float>
          <float>0.08145717</float>
          <float>0.122185752</float>
          <float>0.0610928759</float>
          <float>0.386921525</float>
          <float>0.3018707</float>
          <float>0.100623563</float>
          <float>0.167705938</float>
          <float>0.38013345</float>
          <float>0</float>
          <float>0.190066725</float>
        </Values>
      </signal>
      <resultNeuronIndex>0</resultNeuronIndex>
    </SampleNeuron>
    <SampleNeuron>
      <signal>
        <Values>
          <float>0.162863538</float>
          <float>0.120004714</float>
          <float>0.29144</float>
          <float>0.214294121</float>
          <float>0.111432947</float>
          <float>0.248581186</float>
          <float>0.24613212</float>
          <float>0.24613212</float>
          <float>0.08204404</float>
          <float>0.328176171</float>
          <float>0.08204404</float>
          <float>0.164088085</float>
          <float>0.121822968</float>
          <float>0.121822968</float>
          <float>0.33066234</float>
          <float>0.243645936</float>
          <float>0.104419693</float>
          <float>0.226242661</float>
          <float>0</float>
          <float>0.11486166</float>
          <float>0.459446639</float>
        </Values>
      </signal>
      <resultNeuronIndex>2</resultNeuronIndex>
    </SampleNeuron>
    <SampleNeuron>
      <signal>
        <Values>
          <float>0.169106036</float>
          <float>0.1513054</float>
          <float>0.275909871</float>
          <float>0.2937105</float>
          <float>0.0890031755</float>
          <float>0.213607624</float>
          <float>0.08518876</float>
          <float>0.08518876</float>
          <float>0.4259438</float>
          <float>0.170377523</float>
          <float>0.170377523</float>
          <float>0.255566269</float>
          <float>0.223620489</float>
          <float>0.0931752</float>
          <float>0.2795256</float>
          <float>0.19292748</float>
          <float>0.228005216</float>
          <float>0.175388619</float>
          <float>0.11926426</float>
          <float>0.11926426</float>
          <float>0.3577928</float>
        </Values>
      </signal>
      <resultNeuronIndex>0</resultNeuronIndex>
    </SampleNeuron>
    <SampleNeuron>
      <signal>
        <Values>
          <float>0.193954408</float>
          <float>0.221662179</float>
          <float>0.203190327</float>
          <float>0.30478552</float>
          <float>0.184718475</float>
          <float>0.129302949</float>
          <float>0.176802</float>
          <float>0.353604</float>
          <float>0.088401</float>
          <float>0.265202969</float>
          <float>0.265202969</float>
          <float>0.088401</float>
          <float>0.2250207</float>
          <float>0.187517256</float>
          <float>0.206268981</float>
          <float>0.3000276</float>
          <float>0.2250207</float>
          <float>0.09375863</float>
          <float>0.247522771</float>
          <float>0.123761386</float>
          <float>0.247522771</float>
        </Values>
      </signal>
      <resultNeuronIndex>0</resultNeuronIndex>
    </SampleNeuron>
    <SampleNeuron>
      <signal>
        <Values>
          <float>0.159134254</float>
          <float>0.111393981</float>
          <float>0.2546148</float>
          <float>0.329194158</float>
          <float>0.117569342</float>
          <float>0.07837956</float>
          <float>0.375102162</float>
          <float>0.15004088</float>
          <float>0</float>
          <float>0.15004088</float>
          <float>0.07502044</float>
          <float>0.30008176</float>
          <float>0.286441654</float>
          <float>0.111393981</float>
          <float>0.1273074</float>
          <float>0.196928635</float>
          <float>0.09846432</float>
          <float>0.229750082</float>
          <float>0</float>
          <float>0</float>
          <float>0.525143</float>
        </Values>
      </signal>
      <resultNeuronIndex>2</resultNeuronIndex>
    </SampleNeuron>
    <SampleNeuron>
      <signal>
        <Values>
          <float>0.274740338</float>
          <float>0.111613274</float>
          <float>0.18888399</float>
          <float>0.2146409</float>
          <float>0.120198905</float>
          <float>0.240397811</float>
          <float>0.164353609</float>
          <float>0.164353609</float>
          <float>0.246530414</float>
          <float>0.164353609</float>
          <float>0</float>
          <float>0.410884023</float>
          <float>0.101512522</float>
          <float>0.1522688</float>
          <float>0.3214563</float>
          <float>0.3045376</float>
          <float>0.06767502</float>
          <float>0.203025043</float>
          <float>0.230095059</float>
          <float>0</float>
          <float>0.345142573</float>
        </Values>
      </signal>
      <resultNeuronIndex>1</resultNeuronIndex>
    </SampleNeuron>
    <SampleNeuron>
      <signal>
        <Values>
          <float>0.246345386</float>
          <float>0.109486841</float>
          <float>0.2554693</float>
          <float>0.2554693</float>
          <float>0.191601977</float>
          <float>0.164230272</float>
          <float>0.436643958</float>
          <float>0.08732879</float>
          <float>0.08732879</float>
          <float>0.174657583</float>
          <float>0.174657583</float>
          <float>0.261986375</float>
          <float>0.17979458</float>
          <float>0.2157535</float>
          <float>0.2157535</float>
          <float>0.259340048</float>
          <float>0.111145735</float>
          <float>0.240815759</float>
          <float>0.24452062</float>
          <float>0.24452062</float>
          <float>0.12226031</float>
        </Values>
      </signal>
      <resultNeuronIndex>2</resultNeuronIndex>
    </SampleNeuron>
    <SampleNeuron>
      <signal>
        <Values>
          <float>0.155965447</float>
          <float>0.0733955</float>
          <float>0.302756429</float>
          <float>0.2541456</float>
          <float>0.11118871</float>
          <float>0.166783065</float>
          <float>0.304067075</float>
          <float>0.07601677</float>
          <float>0.152033538</float>
          <float>0.07601677</float>
          <float>0.07601677</float>
          <float>0.380083859</float>
          <float>0.156505123</float>
          <float>0.109553576</float>
          <float>0.266058683</float>
          <float>0.201837629</float>
          <float>0.09174438</float>
          <float>0.238535374</float>
          <float>0</float>
          <float>0</float>
          <float>0.532117367</float>
        </Values>
      </signal>
      <resultNeuronIndex>2</resultNeuronIndex>
    </SampleNeuron>
    <SampleNeuron>
      <signal>
        <Values>
          <float>0.342569947</float>
          <float>0.122346409</float>
          <float>0.08156427</float>
          <float>0.154972121</float>
          <float>0.138659254</float>
          <float>0.252849251</float>
          <float>0.204930231</float>
          <float>0.136620149</float>
          <float>0.204930231</float>
          <float>0.409860462</float>
          <float>0.136620149</float>
          <float>0</float>
          <float>0.132480159</float>
          <float>0.06624008</float>
          <float>0.347760379</float>
          <float>0.385751039</float>
          <float>0.12858367</float>
          <float>0.0321459174</float>
          <float>0.218592241</float>
          <float>0</float>
          <float>0.32788837</float>
        </Values>
      </signal>
      <resultNeuronIndex>0</resultNeuronIndex>
    </SampleNeuron>
    <SampleNeuron>
      <signal>
        <Values>
          <float>0.294777483</float>
          <float>0.169720367</float>
          <float>0.133989766</float>
          <float>0.241181567</float>
          <float>0.107191809</float>
          <float>0.250114232</float>
          <float>0.1496219</float>
          <float>0.1496219</float>
          <float>0.2992438</float>
          <float>0.1496219</float>
          <float>0.2992438</float>
          <float>0.1496219</float>
          <float>0.2288335</float>
          <float>0.105615459</float>
          <float>0.264038652</float>
          <float>0.380855739</float>
          <float>0.163223892</float>
          <float>0.0544079654</float>
          <float>0.359092563</float>
          <float>0.119697519</float>
          <float>0.119697519</float>
        </Values>
      </signal>
      <resultNeuronIndex>1</resultNeuronIndex>
    </SampleNeuron>
    <SampleNeuron>
      <signal>
        <Values>
          <float>0.204032481</float>
          <float>0.106096894</float>
          <float>0.236677676</float>
          <float>0.2530003</float>
          <float>0.114258192</float>
          <float>0.179548576</float>
          <float>0.136701763</float>
          <float>0.06835088</float>
          <float>0.3417544</float>
          <float>0.273403525</float>
          <float>0.205052644</float>
          <float>0.06835088</float>
          <float>0.222140372</float>
          <float>0.15378949</float>
          <float>0.1708772</float>
          <float>0.2894861</float>
          <float>0.09649537</float>
          <float>0.16082561</float>
          <float>0</float>
          <float>0</float>
          <float>0.546807051</float>
        </Values>
      </signal>
      <resultNeuronIndex>0</resultNeuronIndex>
    </SampleNeuron>
    <SampleNeuron>
      <signal>
        <Values>
          <float>0.167040944</float>
          <float>0.177481</float>
          <float>0.271441519</float>
          <float>0.20225665</float>
          <float>0.211450145</float>
          <float>0.20225665</float>
          <float>0.30798173</float>
          <float>0.2309863</float>
          <float>0.07699543</float>
          <float>0.153990865</float>
          <float>0.07699543</float>
          <float>0.384977162</float>
          <float>0.0933278</float>
          <float>0.205321163</float>
          <float>0.3173145</float>
          <float>0.254881442</float>
          <float>0.191161066</float>
          <float>0.169920951</float>
          <float>0.205321163</float>
          <float>0.205321163</float>
          <float>0.205321163</float>
        </Values>
      </signal>
      <resultNeuronIndex>0</resultNeuronIndex>
    </SampleNeuron>
    <SampleNeuron>
      <signal>
        <Values>
          <float>0.219061762</float>
          <float>0.122674592</float>
          <float>0.245349184</float>
          <float>0.17790471</float>
          <float>0.124533296</float>
          <float>0.284647524</float>
          <float>0.146771386</float>
          <float>0.07338569</float>
          <float>0.366928458</float>
          <float>0.146771386</float>
          <float>0.220157072</float>
          <float>0.220157072</float>
          <float>0.146771386</float>
          <float>0.146771386</float>
          <float>0.293542773</float>
          <float>0.338018924</float>
          <float>0.0889523551</float>
          <float>0.160114244</float>
          <float>0</float>
          <float>0.195695177</float>
          <float>0.391390353</float>
        </Values>
      </signal>
      <resultNeuronIndex>0</resultNeuronIndex>
    </SampleNeuron>
    <SampleNeuron>
      <signal>
        <Values>
          <float>0.27876842</float>
          <float>0.11826539</float>
          <float>0.168950543</float>
          <float>0.1520555</float>
          <float>0.11826539</float>
          <float>0.295663446</float>
          <float>0.282992184</float>
          <float>0.070748046</float>
          <float>0.212244138</float>
          <float>0.353740215</float>
          <float>0.070748046</float>
          <float>0.141496092</float>
          <float>0.083233</float>
          <float>0.1331728</float>
          <float>0.349578559</float>
          <float>0.3773229</float>
          <float>0.120057292</float>
          <float>0.0686041638</float>
          <float>0.226393744</float>
          <float>0</float>
          <float>0.3395906</float>
        </Values>
      </signal>
      <resultNeuronIndex>0</resultNeuronIndex>
    </SampleNeuron>
    <SampleNeuron>
      <signal>
        <Values>
          <float>0.232718438</float>
          <float>0.160495475</float>
          <float>0.144445941</float>
          <float>0.154918939</float>
          <float>0.07290303</float>
          <float>0.309837878</float>
          <float>0.06720748</float>
          <float>0.06720748</float>
          <float>0.403244883</float>
          <float>0.403244883</float>
          <float>0.06720748</float>
          <float>0.06720748</float>
          <float>0.11123997</float>
          <float>0.0556199849</float>
          <float>0.3707999</float>
          <float>0.293269</float>
          <float>0.1466345</float>
          <float>0.09775633</float>
          <float>0.3584399</float>
          <float>0</float>
          <float>0.179219946</float>
        </Values>
      </signal>
      <resultNeuronIndex>2</resultNeuronIndex>
    </SampleNeuron>
    <SampleNeuron>
      <signal>
        <Values>
          <float>0.3007664</float>
          <float>0.158737823</float>
          <float>0.100255467</float>
          <float>0.2673479</float>
          <float>0.08354622</float>
          <float>0.208865553</float>
          <float>0.06219552</float>
          <float>0.06219552</float>
          <float>0.435368657</float>
          <float>0.248782083</float>
          <float>0.124391042</float>
          <float>0.186586574</float>
          <float>0.1924174</float>
          <float>0.087462455</float>
          <float>0.279879838</float>
          <float>0.3562107</float>
          <float>0.16962415</float>
          <float>0.03392483</float>
          <float>0.335855842</float>
          <float>0.22390388</float>
          <float>0</float>
        </Values>
      </signal>
      <resultNeuronIndex>2</resultNeuronIndex>
    </SampleNeuron>
    <SampleNeuron>
      <signal>
        <Values>
          <float>0.156271562</float>
          <float>0.121544547</float>
          <float>0.2951796</float>
          <float>0.222356543</float>
          <float>0.111178271</float>
          <float>0.2394609</float>
          <float>0.318330973</float>
          <float>0.190998584</float>
          <float>0.0636661947</float>
          <float>0.127332389</float>
          <float>0.0636661947</float>
          <float>0.381997168</float>
          <float>0.121544547</float>
          <float>0.121544547</float>
          <float>0.3299066</float>
          <float>0.179061159</float>
          <float>0.107436694</float>
          <float>0.286497861</float>
          <float>0.381997168</float>
          <float>0</float>
          <float>0.190998584</float>
        </Values>
      </signal>
      <resultNeuronIndex>1</resultNeuronIndex>
    </SampleNeuron>
    <SampleNeuron>
      <signal>
        <Values>
          <float>0.160751984</float>
          <float>0.125029311</float>
          <float>0.312573284</float>
          <float>0.2589893</float>
          <float>0.1786133</float>
          <float>0.160751984</float>
          <float>0.398903072</float>
          <float>0.06648384</float>
          <float>0.132967681</float>
          <float>0.265935361</float>
          <float>0.06648384</float>
          <float>0.265935361</float>
          <float>0.1935853</float>
          <float>0.1935853</float>
          <float>0.211183965</float>
          <float>0.235715449</float>
          <float>0.108791746</float>
          <float>0.2538474</float>
          <float>0.11967092</float>
          <float>0.359012753</float>
          <float>0.11967092</float>
        </Values>
      </signal>
      <resultNeuronIndex>2</resultNeuronIndex>
    </SampleNeuron>
    <SampleNeuron>
      <signal>
        <Values>
          <float>0.2722461</float>
          <float>0.122949846</float>
          <float>0.193206891</float>
          <float>0.289810359</float>
          <float>0.122949846</float>
          <float>0.175642624</float>
          <float>0.392268568</float>
          <float>0.06537809</float>
          <float>0.130756184</float>
          <float>0.130756184</float>
          <float>0.06537809</float>
          <float>0.392268568</float>
          <float>0.190365627</float>
          <float>0.121141762</float>
          <float>0.276895463</float>
          <float>0.3115074</float>
          <float>0.0865298361</float>
          <float>0.190365627</float>
          <float>0.235361144</float>
          <float>0.235361144</float>
          <float>0.117680572</float>
        </Values>
      </signal>
      <resultNeuronIndex>0</resultNeuronIndex>
    </SampleNeuron>
    <SampleNeuron>
      <signal>
        <Values>
          <float>0.173769683</float>
          <float>0.077230975</float>
          <float>0.328231633</float>
          <float>0.276648253</float>
          <float>0.172905147</float>
          <float>0.129678875</float>
          <float>0.128718287</float>
          <float>0.321795732</float>
          <float>0.128718287</float>
          <float>0.128718287</float>
          <float>0.06435914</float>
          <float>0.38615486</float>
          <float>0.19307743</float>
          <float>0.175524935</float>
          <float>0.210629925</float>
          <float>0.212385178</float>
          <float>0.0965387151</float>
          <float>0.2703084</float>
          <float>0</float>
          <float>0.19307743</float>
          <float>0.38615486</float>
        </Values>
      </signal>
      <resultNeuronIndex>1</resultNeuronIndex>
    </SampleNeuron>
    <SampleNeuron>
      <signal>
        <Values>
          <float>0.237726718</float>
          <float>0.11446102</float>
          <float>0.237726718</float>
          <float>0.167142436</float>
          <float>0.167142436</float>
          <float>0.2556296</float>
          <float>0.196638167</float>
          <float>0.06554605</float>
          <float>0.327730268</float>
          <float>0.1310921</float>
          <float>0.196638167</float>
          <float>0.2621842</float>
          <float>0.0786552653</float>
          <float>0.157310531</float>
          <float>0.3539487</float>
          <float>0.250266761</float>
          <float>0.10725718</float>
          <float>0.232390553</float>
          <float>0.393276334</float>
          <float>0.196638167</float>
          <float>0</float>
        </Values>
      </signal>
      <resultNeuronIndex>0</resultNeuronIndex>
    </SampleNeuron>
    <SampleNeuron>
      <signal>
        <Values>
          <float>0.167885646</float>
          <float>0.150213465</float>
          <float>0.2739187</float>
          <float>0.224249169</float>
          <float>0.116609566</float>
          <float>0.251159072</float>
          <float>0.197339267</float>
          <float>0.197339267</float>
          <float>0.197339267</float>
          <float>0.197339267</float>
          <float>0.1315595</float>
          <float>0.263119</float>
          <float>0.1076396</float>
          <float>0.143519476</float>
          <float>0.340858728</float>
          <float>0.191535175</float>
          <float>0.226359755</float>
          <float>0.174122885</float>
          <float>0</float>
          <float>0.118403561</float>
          <float>0.473614246</float>
        </Values>
      </signal>
      <resultNeuronIndex>0</resultNeuronIndex>
    </SampleNeuron>
    <SampleNeuron>
      <signal>
        <Values>
          <float>0.158692077</float>
          <float>0.158692077</float>
          <float>0.2520404</float>
          <float>0.168026909</float>
          <float>0.0840134546</float>
          <float>0.317384154</float>
          <float>0.113884911</float>
          <float>0.113884911</float>
          <float>0.341654748</float>
          <float>0.170827374</float>
          <float>0.0569424555</float>
          <float>0.341654748</float>
          <float>0.132865727</float>
          <float>0.0569424555</float>
          <float>0.37961638</float>
          <float>0.246750638</float>
          <float>0.170827374</float>
          <float>0.151846558</float>
          <float>0.37961638</float>
          <float>0</float>
          <float>0.18980819</float>
        </Values>
      </signal>
      <resultNeuronIndex>0</resultNeuronIndex>
    </SampleNeuron>
    <SampleNeuron>
      <signal>
        <Values>
          <float>0.343207</float>
          <float>0.11972338</float>
          <float>0.07183403</float>
          <float>0.255409867</float>
          <float>0.07981558</float>
          <float>0.199538946</float>
          <float>0.106952883</float>
          <float>0.05347644</float>
          <float>0.37433508</float>
          <float>0.37433508</float>
          <float>0.160429329</float>
          <float>0</float>
          <float>0.194459781</float>
          <float>0.081024915</float>
          <float>0.259279728</float>
          <float>0.3932091</float>
          <float>0.125826925</float>
          <float>0.0157283656</float>
          <float>0</float>
          <float>0.213905767</float>
          <float>0.320858657</float>
        </Values>
      </signal>
      <resultNeuronIndex>2</resultNeuronIndex>
    </SampleNeuron>
    <SampleNeuron>
      <signal>
        <Values>
          <float>0.2783082</float>
          <float>0.118070155</float>
          <float>0.168671638</float>
          <float>0.136981815</float>
          <float>0.136981815</float>
          <float>0.291086346</float>
          <float>0.113010004</float>
          <float>0.113010004</float>
          <float>0.339030027</float>
          <float>0.339030027</float>
          <float>0.0565050021</float>
          <float>0.169515014</float>
          <float>0.105946876</float>
          <float>0.1412625</float>
          <float>0.317840636</float>
          <float>0.3767</float>
          <float>0.119859092</float>
          <float>0.06849091</float>
          <float>0.3767</float>
          <float>0</float>
          <float>0.18835</float>
        </Values>
      </signal>
      <resultNeuronIndex>0</resultNeuronIndex>
    </SampleNeuron>
    <SampleNeuron>
      <signal>
        <Values>
          <float>0.23072733</float>
          <float>0.1242378</float>
          <float>0.239601463</float>
          <float>0.17748256</float>
          <float>0.141986042</float>
          <float>0.275097966</float>
          <float>0.237826645</float>
          <float>0.118913323</float>
          <float>0.237826645</float>
          <float>0.2972833</float>
          <float>0.237826645</float>
          <float>0.05945666</float>
          <float>0.144137353</float>
          <float>0.07206868</float>
          <float>0.37836054</float>
          <float>0.3322578</float>
          <float>0.104923517</float>
          <float>0.157385275</float>
          <float>0.118913323</float>
          <float>0.118913323</float>
          <float>0.356739968</float>
        </Values>
      </signal>
      <resultNeuronIndex>0</resultNeuronIndex>
    </SampleNeuron>
    <SampleNeuron>
      <signal>
        <Values>
          <float>0.201228023</float>
          <float>0.183729932</float>
          <float>0.201228023</float>
          <float>0.3149656</float>
          <float>0.1574828</float>
          <float>0.113737568</float>
          <float>0.234474376</float>
          <float>0.117237188</float>
          <float>0.234474376</float>
          <float>0.293092966</float>
          <float>0.175855786</float>
          <float>0.117237188</float>
          <float>0.258611441</float>
          <float>0.155166879</float>
          <float>0.172407642</float>
          <float>0.310333759</float>
          <float>0.1896484</float>
          <float>0.08620382</float>
          <float>0</float>
          <float>0.117237188</float>
          <float>0.468948752</float>
        </Values>
      </signal>
      <resultNeuronIndex>1</resultNeuronIndex>
    </SampleNeuron>
    <SampleNeuron>
      <signal>
        <Values>
          <float>0.254951179</float>
          <float>0.16703698</float>
          <float>0.158245564</float>
          <float>0.268466353</float>
          <float>0.121242873</float>
          <float>0.1905245</float>
          <float>0.174070135</float>
          <float>0.0580233745</float>
          <float>0.34814027</float>
          <float>0.4061636</float>
          <float>0.0580233745</float>
          <float>0.116046749</float>
          <float>0.21758765</float>
          <float>0.163190737</float>
          <float>0.199455351</float>
          <float>0.308249176</float>
          <float>0.163190737</float>
          <float>0.108793825</float>
          <float>0.2320935</float>
          <float>0</float>
          <float>0.34814027</float>
        </Values>
      </signal>
      <resultNeuronIndex>0</resultNeuronIndex>
    </SampleNeuron>
    <SampleNeuron>
      <signal>
        <Values>
          <float>0.26479134</float>
          <float>0.179374769</float>
          <float>0.128124848</float>
          <float>0.156079352</float>
          <float>0.112723976</float>
          <float>0.3034876</float>
          <float>0.228916377</float>
          <float>0.0572290942</float>
          <float>0.286145478</float>
          <float>0.114458188</float>
          <float>0.34337458</float>
          <float>0.114458188</float>
          <float>0.08671075</float>
          <float>0.1387372</float>
          <float>0.346843</float>
          <float>0.346843</float>
          <float>0.1734215</float>
          <float>0.05202645</float>
          <float>0.34337458</float>
          <float>0</float>
          <float>0.228916377</float>
        </Values>
      </signal>
      <resultNeuronIndex>0</resultNeuronIndex>
    </SampleNeuron>
    <SampleNeuron>
      <signal>
        <Values>
          <float>0.172736466</float>
          <float>0.129552364</float>
          <float>0.276378363</float>
          <float>0.2850152</float>
          <float>0.12091554</float>
          <float>0.172736466</float>
          <float>0.36824277</float>
          <float>0.05260611</float>
          <float>0.157818332</float>
          <float>0.210424438</float>
          <float>0.105212219</float>
          <float>0.263030559</float>
          <float>0.187215865</float>
          <float>0.119137369</float>
          <float>0.272313982</float>
          <float>0.2042355</float>
          <float>0.2042355</float>
          <float>0.17019625</float>
          <float>0</float>
          <float>0.115733445</float>
          <float>0.462933779</float>
        </Values>
      </signal>
      <resultNeuronIndex>2</resultNeuronIndex>
    </SampleNeuron>
    <SampleNeuron>
      <signal>
        <Values>
          <float>0.3043597</float>
          <float>0.160634279</float>
          <float>0.10145323</float>
          <float>0.363540739</float>
          <float>0.126816541</float>
          <float>0.0760899261</float>
          <float>0.3604664</float>
          <float>0.154485613</float>
          <float>0.0514952019</float>
          <float>0.205980808</float>
          <float>0.154485613</float>
          <float>0.205980808</float>
          <float>0.308971226</float>
          <float>0.120155476</float>
          <float>0.137320548</float>
          <float>0.3604664</float>
          <float>0.154485613</float>
          <float>0.0514952019</float>
          <float>0</float>
          <float>0.226578891</float>
          <float>0.339868337</float>
        </Values>
      </signal>
      <resultNeuronIndex>0</resultNeuronIndex>
    </SampleNeuron>
    <SampleNeuron>
      <signal>
        <Values>
          <float>0.280987352</float>
          <float>0.08780855</float>
          <float>0.219521374</float>
          <float>0.22830224</float>
          <float>0.11415112</float>
          <float>0.245863944</float>
          <float>0.213933572</float>
          <float>0.160450175</float>
          <float>0.213933572</float>
          <float>0.160450175</float>
          <float>0.053483393</float>
          <float>0.374383718</float>
          <float>0.103820704</float>
          <float>0.1384276</float>
          <float>0.346069</float>
          <float>0.346069</float>
          <float>0.08651725</float>
          <float>0.155731052</float>
          <float>0.117663458</float>
          <float>0.117663458</float>
          <float>0.3529904</float>
        </Values>
      </signal>
      <resultNeuronIndex>2</resultNeuronIndex>
    </SampleNeuron>
    <SampleNeuron>
      <signal>
        <Values>
          <float>0.25148052</float>
          <float>0.121083215</float>
          <float>0.25148052</float>
          <float>0.214224145</float>
          <float>0.195595965</float>
          <float>0.214224145</float>
          <float>0.283656478</float>
          <float>0.226925179</float>
          <float>0.11346259</float>
          <float>0.1701939</float>
          <float>0.1701939</float>
          <float>0.283656478</float>
          <float>0.09455216</float>
          <float>0.189104319</float>
          <float>0.3403878</float>
          <float>0.283656478</float>
          <float>0.11346259</float>
          <float>0.226925179</float>
          <float>0.124808848</float>
          <float>0.2496177</float>
          <float>0.2496177</float>
        </Values>
      </signal>
      <resultNeuronIndex>1</resultNeuronIndex>
    </SampleNeuron>
    <SampleNeuron>
      <signal>
        <Values>
          <float>0.15452072</float>
          <float>0.1115983</float>
          <float>0.30904144</float>
          <float>0.166982055</float>
          <float>0.157705292</float>
          <float>0.250473082</float>
          <float>0.209149256</float>
          <float>0.0522873141</float>
          <float>0.3137239</float>
          <float>0.209149256</float>
          <float>0.0522873141</float>
          <float>0.3137239</float>
          <float>0.07421425</float>
          <float>0.1484285</float>
          <float>0.3525177</float>
          <float>0.226578355</float>
          <float>0.08714552</float>
          <float>0.261436582</float>
          <float>0</float>
          <float>0.383440316</float>
          <float>0.191720158</float>
        </Values>
      </signal>
      <resultNeuronIndex>1</resultNeuronIndex>
    </SampleNeuron>
    <SampleNeuron>
      <signal>
        <Values>
          <float>0.144045785</float>
          <float>0.144045785</float>
          <float>0.28809157</float>
          <float>0.257992476</float>
          <float>0.163395226</float>
          <float>0.154795483</float>
          <float>0.419042319</float>
          <float>0.05238029</float>
          <float>0.10476058</float>
          <float>0.10476058</float>
          <float>0.10476058</float>
          <float>0.366662</float>
          <float>0.203358769</float>
          <float>0.169465646</float>
          <float>0.203358769</float>
          <float>0.180057243</float>
          <float>0.144045785</float>
          <float>0.252080142</float>
          <float>0</float>
          <float>0.384122133</float>
          <float>0.192061067</float>
        </Values>
      </signal>
      <resultNeuronIndex>0</resultNeuronIndex>
    </SampleNeuron>
    <SampleNeuron>
      <signal>
        <Values>
          <float>0.279715836</float>
          <float>0.126323283</float>
          <float>0.198508</float>
          <float>0.279715836</float>
          <float>0.189484924</float>
          <float>0.135346368</float>
          <float>0.164876491</float>
          <float>0.329752982</float>
          <float>0.109917656</float>
          <float>0.164876491</float>
          <float>0.0549588278</float>
          <float>0.3847118</float>
          <float>0.1831961</float>
          <float>0.2015157</float>
          <float>0.219835311</float>
          <float>0.337835133</float>
          <float>0.08890399</float>
          <float>0.177807987</float>
          <float>0.120909423</float>
          <float>0.241818845</float>
          <float>0.241818845</float>
        </Values>
      </signal>
      <resultNeuronIndex>2</resultNeuronIndex>
    </SampleNeuron>
    <SampleNeuron>
      <signal>
        <Values>
          <float>0.2203189</float>
          <float>0.110159449</float>
          <float>0.237266511</float>
          <float>0.355899781</float>
          <float>0.127107069</float>
          <float>0.08473804</float>
          <float>0.309679031</float>
          <float>0.154839516</float>
          <float>0.103226341</float>
          <float>0.25806585</float>
          <float>0.154839516</float>
          <float>0.154839516</float>
          <float>0.292474627</float>
          <float>0.12043073</float>
          <float>0.154839516</float>
          <float>0.3440878</float>
          <float>0.08602195</float>
          <float>0.137635127</float>
          <float>0</float>
          <float>0.113548972</float>
          <float>0.4541959</float>
        </Values>
      </signal>
      <resultNeuronIndex>2</resultNeuronIndex>
    </SampleNeuron>
    <SampleNeuron>
      <signal>
        <Values>
          <float>0.16998224</float>
          <float>0.16998224</float>
          <float>0.254973352</float>
          <float>0.275269717</float>
          <float>0.11543569</float>
          <float>0.20423238</float>
          <float>0.162255764</float>
          <float>0.0540852547</float>
          <float>0.378596783</float>
          <float>0.216341019</float>
          <float>0.108170509</float>
          <float>0.270426273</float>
          <float>0.216341019</float>
          <float>0.162255764</float>
          <float>0.216341019</float>
          <float>0.2686816</float>
          <float>0.172723874</float>
          <float>0.153532326</float>
          <float>0</float>
          <float>0.19831261</float>
          <float>0.396625221</float>
        </Values>
      </signal>
      <resultNeuronIndex>1</resultNeuronIndex>
    </SampleNeuron>
    <SampleNeuron>
      <signal>
        <Values>
          <float>0.2575655</float>
          <float>0.1631248</float>
          <float>0.1545393</float>
          <float>0.1631248</float>
          <float>0.128782749</float>
          <float>0.283322036</float>
          <float>0.2091744</float>
          <float>0.1045872</float>
          <float>0.261468</float>
          <float>0.3660552</float>
          <float>0.0522936</float>
          <float>0.1568808</float>
          <float>0.1394496</float>
          <float>0.0522936</float>
          <float>0.3834864</float>
          <float>0.3137616</float>
          <float>0.1568808</float>
          <float>0.1045872</float>
          <float>0.23009184</float>
          <float>0.345137745</float>
          <float>0</float>
        </Values>
      </signal>
      <resultNeuronIndex>1</resultNeuronIndex>
    </SampleNeuron>
    <SampleNeuron>
      <signal>
        <Values>
          <float>0.265206635</float>
          <float>0.179656118</float>
          <float>0.12832579</float>
          <float>0.156324148</float>
          <float>0.1389548</float>
          <float>0.2779096</float>
          <float>0.1042161</float>
          <float>0.1042161</float>
          <float>0.364756346</float>
          <float>0.156324148</float>
          <float>0.3126483</float>
          <float>0.1042161</float>
          <float>0.107472852</float>
          <float>0.143297136</float>
          <float>0.322418541</float>
          <float>0.347387016</float>
          <float>0.173693508</float>
          <float>0.05210805</float>
          <float>0.3821257</float>
          <float>0.191062853</float>
          <float>0</float>
        </Values>
      </signal>
      <resultNeuronIndex>2</resultNeuronIndex>
    </SampleNeuron>
    <SampleNeuron>
      <signal>
        <Values>
          <float>0.235575452</float>
          <float>0.126848325</float>
          <float>0.244636044</float>
          <float>0.3261814</float>
          <float>0.1721513</float>
          <float>0.108727127</float>
          <float>0.275936276</float>
          <float>0.165561765</float>
          <float>0.165561765</float>
          <float>0.11037451</float>
          <float>0.220749021</float>
          <float>0.275936276</float>
          <float>0.2678205</float>
          <float>0.17854701</float>
          <float>0.1606923</float>
          <float>0.257540524</float>
          <float>0.128770262</float>
          <float>0.220749021</float>
          <float>0.242823929</float>
          <float>0</float>
          <float>0.3642359</float>
        </Values>
      </signal>
      <resultNeuronIndex>1</resultNeuronIndex>
    </SampleNeuron>
    <SampleNeuron>
      <signal>
        <Values>
          <float>0.197943076</float>
          <float>0.180730626</float>
          <float>0.197943076</float>
          <float>0.164747655</float>
          <float>0.09152647</float>
          <float>0.32034266</float>
          <float>0.104839414</float>
          <float>0.157259122</float>
          <float>0.314518243</float>
          <float>0.262098551</float>
          <float>0.209678829</float>
          <float>0.104839414</float>
          <float>0.130203784</float>
          <float>0.05580162</float>
          <float>0.390611351</float>
          <float>0.305267721</float>
          <float>0.1865525</float>
          <float>0.0847965851</float>
          <float>0.3844112</float>
          <float>0.1922056</float>
          <float>0</float>
        </Values>
      </signal>
      <resultNeuronIndex>0</resultNeuronIndex>
    </SampleNeuron>
    <SampleNeuron>
      <signal>
        <Values>
          <float>0.220000654</float>
          <float>0.118461892</float>
          <float>0.2284622</float>
          <float>0.27077</float>
          <float>0.08461563</float>
          <float>0.211539075</float>
          <float>0.154615849</float>
          <float>0</float>
          <float>0.412308931</float>
          <float>0.3092317</float>
          <float>0.206154466</float>
          <float>0.0515386164</float>
          <float>0.206154466</float>
          <float>0.08589769</float>
          <float>0.2748726</float>
          <float>0.316810876</float>
          <float>0.100045547</float>
          <float>0.150068328</float>
          <float>0.340154856</float>
          <float>0</float>
          <float>0.2267699</float>
        </Values>
      </signal>
      <resultNeuronIndex>0</resultNeuronIndex>
    </SampleNeuron>
    <SampleNeuron>
      <signal>
        <Values>
          <float>0.345571458</float>
          <float>0.123418383</float>
          <float>0.0822789147</float>
          <float>0.222153068</float>
          <float>0.115190484</float>
          <float>0.213925183</float>
          <float>0.350807369</float>
          <float>0.150346026</float>
          <float>0.0501153432</float>
          <float>0.350807369</float>
          <float>0.100230686</float>
          <float>0.100230686</float>
          <float>0.1169358</float>
          <float>0.133640915</float>
          <float>0.300692052</float>
          <float>0.400922745</float>
          <float>0.133640915</float>
          <float>0.0167051144</float>
          <float>0.330761254</float>
          <float>0.2205075</float>
          <float>0</float>
        </Values>
      </signal>
      <resultNeuronIndex>0</resultNeuronIndex>
    </SampleNeuron>
    <SampleNeuron>
      <signal>
        <Values>
          <float>0.156090379</float>
          <float>0.137726814</float>
          <float>0.321362525</float>
          <float>0.2111811</float>
          <float>0.192817524</float>
          <float>0.2111811</float>
          <float>0.279627144</float>
          <float>0.22370173</float>
          <float>0.111850865</float>
          <float>0.111850865</float>
          <float>0.1677763</float>
          <float>0.3355526</float>
          <float>0.09320905</float>
          <float>0.1864181</float>
          <float>0.3355526</float>
          <float>0.22370173</float>
          <float>0.111850865</float>
          <float>0.279627144</float>
          <float>0.24607189</float>
          <float>0.123035945</float>
          <float>0.24607189</float>
        </Values>
      </signal>
      <resultNeuronIndex>1</resultNeuronIndex>
    </SampleNeuron>
    <SampleNeuron>
      <signal>
        <Values>
          <float>0.324756265</float>
          <float>0.171399131</float>
          <float>0.108252086</float>
          <float>0.234546185</float>
          <float>0.108252086</float>
          <float>0.2616092</float>
          <float>0.251836449</float>
          <float>0.151101872</float>
          <float>0.201469153</float>
          <float>0.219784543</float>
          <float>0.219784543</float>
          <float>0.1648384</float>
          <float>0.106660143</float>
          <float>0.142213523</float>
          <float>0.3555338</float>
          <float>0.384622931</float>
          <float>0.1648384</float>
          <float>0.0549461357</float>
          <float>0.241762981</float>
          <float>0.241762981</float>
          <float>0.12088149</float>
        </Values>
      </signal>
      <resultNeuronIndex>1</resultNeuronIndex>
    </SampleNeuron>
    <SampleNeuron>
      <signal>
        <Values>
          <float>0.174556553</float>
          <float>0.09697586</float>
          <float>0.3491131</float>
          <float>0.240847513</float>
          <float>0.1389505</float>
          <float>0.240847513</float>
          <float>0.112844639</float>
          <float>0.282111615</float>
          <float>0.225689277</float>
          <float>0.112844639</float>
          <float>0.169266954</float>
          <float>0.3385339</float>
          <float>0.225689277</float>
          <float>0.131652087</float>
          <float>0.263304174</float>
          <float>0.2133469</float>
          <float>0.135766208</float>
          <float>0.271532416</float>
          <float>0.206881836</float>
          <float>0.206881836</float>
          <float>0.206881836</float>
        </Values>
      </signal>
      <resultNeuronIndex>2</resultNeuronIndex>
    </SampleNeuron>
    <SampleNeuron>
      <signal>
        <Values>
          <float>0.264359385</float>
          <float>0.0826123059</float>
          <float>0.206530765</float>
          <float>0.280881852</float>
          <float>0.11565724</float>
          <float>0.1569634</float>
          <float>0.40254727</float>
          <float>0.05031841</float>
          <float>0.100636818</float>
          <float>0.15095523</float>
          <float>0</float>
          <float>0.40254727</float>
          <float>0.195353821</float>
          <float>0.113956392</float>
          <float>0.244192272</float>
          <float>0.325589716</float>
          <float>0.08139743</float>
          <float>0.146515369</float>
          <float>0.221400991</float>
          <float>0</float>
          <float>0.3321015</float>
        </Values>
      </signal>
      <resultNeuronIndex>0</resultNeuronIndex>
    </SampleNeuron>
    <SampleNeuron>
      <signal>
        <Values>
          <float>0.169910252</float>
          <float>0.143082321</float>
          <float>0.286164641</float>
          <float>0.277222</float>
          <float>0.1788529</float>
          <float>0.143082321</float>
          <float>0.163406521</float>
          <float>0.2723442</float>
          <float>0.163406521</float>
          <float>0.163406521</float>
          <float>0.163406521</float>
          <float>0.2723442</float>
          <float>0.199719086</float>
          <float>0.1815628</float>
          <float>0.217875361</float>
          <float>0.193844989</float>
          <float>0.211467266</float>
          <float>0.193844989</float>
          <float>0</float>
          <float>0.11983145</float>
          <float>0.4793258</float>
        </Values>
      </signal>
      <resultNeuronIndex>0</resultNeuronIndex>
    </SampleNeuron>
    <SampleNeuron>
      <signal>
        <Values>
          <float>0.236100465</float>
          <float>0.118050233</float>
          <float>0.25426203</float>
          <float>0.245181248</float>
          <float>0.118050233</float>
          <float>0.245181248</float>
          <float>0.3318615</float>
          <float>0.165930748</float>
          <float>0.1106205</float>
          <float>0.202804253</float>
          <float>0.202804253</float>
          <float>0.202804253</float>
          <float>0.129057243</float>
          <float>0.129057243</float>
          <float>0.350298226</float>
          <float>0.368735015</float>
          <float>0.073747</float>
          <float>0.165930748</float>
          <float>0.2433651</float>
          <float>0.121682547</float>
          <float>0.2433651</float>
        </Values>
      </signal>
      <resultNeuronIndex>1</resultNeuronIndex>
    </SampleNeuron>
    <SampleNeuron>
      <signal>
        <Values>
          <float>0.301552474</float>
          <float>0.159152687</float>
          <float>0.100517482</float>
          <float>0.1554155</float>
          <float>0.08634195</float>
          <float>0.3194652</float>
          <float>0.102040477</float>
          <float>0.153060719</float>
          <float>0.306121439</float>
          <float>0.204080954</float>
          <float>0.2551012</float>
          <float>0.102040477</float>
          <float>0.122767448</float>
          <float>0.05261462</float>
          <float>0.385840565</float>
          <float>0.357141674</float>
          <float>0.153060719</float>
          <float>0.05102024</float>
          <float>0.374148428</float>
          <float>0.187074214</float>
          <float>0</float>
        </Values>
      </signal>
      <resultNeuronIndex>0</resultNeuronIndex>
    </SampleNeuron>
    <SampleNeuron>
      <signal>
        <Values>
          <float>0.235204458</float>
          <float>0.135694876</float>
          <float>0.235204458</float>
          <float>0.153787524</float>
          <float>0.1447412</float>
          <float>0.307575047</float>
          <float>0.110200696</float>
          <float>0.16530104</float>
          <float>0.33060208</float>
          <float>0.110200696</float>
          <float>0.275501728</float>
          <float>0.220401391</float>
          <float>0.09183391</float>
          <float>0.16530104</float>
          <float>0.348968834</float>
          <float>0.23876816</float>
          <float>0.146934256</float>
          <float>0.220401391</float>
          <float>0.3636623</float>
          <float>0.12122076</float>
          <float>0.12122076</float>
        </Values>
      </signal>
      <resultNeuronIndex>0</resultNeuronIndex>
    </SampleNeuron>
    <SampleNeuron>
      <signal>
        <Values>
          <float>0.165486157</float>
          <float>0.1838735</float>
          <float>0.248229235</float>
          <float>0.169465512</float>
          <float>0.1427078</float>
          <float>0.2854156</float>
          <float>0.217305049</float>
          <float>0.108652525</float>
          <float>0.27163133</float>
          <float>0.199196309</float>
          <float>0.199196309</float>
          <float>0.199196309</float>
          <float>0.144870043</float>
          <float>0.07243502</float>
          <float>0.380283833</float>
          <float>0.261445135</float>
          <float>0.186746523</float>
          <float>0.149397224</float>
          <float>0</float>
          <float>0.199196309</float>
          <float>0.398392618</float>
        </Values>
      </signal>
      <resultNeuronIndex>0</resultNeuronIndex>
    </SampleNeuron>
    <SampleNeuron>
      <signal>
        <Values>
          <float>0.27227515</float>
          <float>0.112113304</float>
          <float>0.15215376</float>
          <float>0.336339921</float>
          <float>0.1201214</float>
          <float>0.08008093</float>
          <float>0.390212536</float>
          <float>0.048776567</float>
          <float>0.097553134</float>
          <float>0.341435939</float>
          <float>0.048776567</float>
          <float>0.1463297</float>
          <float>0.276400536</float>
          <float>0.113811992</float>
          <float>0.1463297</float>
          <float>0.357694834</float>
          <float>0.113811992</float>
          <float>0.0650354251</float>
          <float>0.107308447</float>
          <float>0</float>
          <float>0.4292338</float>
        </Values>
      </signal>
      <resultNeuronIndex>2</resultNeuronIndex>
    </SampleNeuron>
    <SampleNeuron>
      <signal>
        <Values>
          <float>0.214940324</float>
          <float>0.196249858</float>
          <float>0.214940324</float>
          <float>0.289702147</float>
          <float>0.130833238</float>
          <float>0.205595076</float>
          <float>0.227683812</float>
          <float>0.113841906</float>
          <float>0.284604758</float>
          <float>0.284604758</float>
          <float>0.227683812</float>
          <float>0.113841906</float>
          <float>0.208710164</float>
          <float>0.189736515</float>
          <float>0.227683812</float>
          <float>0.341525733</float>
          <float>0.189736515</float>
          <float>0.09486826</float>
          <float>0.1252261</float>
          <float>0.2504522</float>
          <float>0.2504522</float>
        </Values>
      </signal>
      <resultNeuronIndex>0</resultNeuronIndex>
    </SampleNeuron>
    <SampleNeuron>
      <signal>
        <Values>
          <float>0.2659019</float>
          <float>0.168404534</float>
          <float>0.159541145</float>
          <float>0.2924921</float>
          <float>0.07977057</float>
          <float>0.2215849</float>
          <float>0.215944573</float>
          <float>0</float>
          <float>0.377902985</float>
          <float>0.323916852</float>
          <float>0.107972287</float>
          <float>0.161958426</float>
          <float>0.215944573</float>
          <float>0.08997691</float>
          <float>0.2879261</float>
          <float>0.305921465</float>
          <float>0.179953814</float>
          <float>0.107972287</float>
          <float>0.237539023</float>
          <float>0.118769512</float>
          <float>0.237539023</float>
        </Values>
      </signal>
      <resultNeuronIndex>2</resultNeuronIndex>
    </SampleNeuron>
    <SampleNeuron>
      <signal>
        <Values>
          <float>0.2280354</float>
          <float>0.127699837</float>
          <float>0.255399674</float>
          <float>0.310128152</float>
          <float>0.118578412</float>
          <float>0.182428315</float>
          <float>0.3333463</float>
          <float>0.05555772</float>
          <float>0.222230881</float>
          <float>0.203711629</float>
          <float>0.254639536</float>
          <float>0.152783722</float>
          <float>0.215694666</float>
          <float>0.125821888</float>
          <float>0.269618332</float>
          <float>0.35186553</float>
          <float>0.0925961956</float>
          <float>0.166673154</float>
          <float>0.244453967</float>
          <float>0.122226983</float>
          <float>0.244453967</float>
        </Values>
      </signal>
      <resultNeuronIndex>0</resultNeuronIndex>
    </SampleNeuron>
    <SampleNeuron>
      <signal>
        <Values>
          <float>0.340055943</float>
          <float>0.121448554</float>
          <float>0.0809657</float>
          <float>0.234800518</float>
          <float>0.15383482</float>
          <float>0.15383482</float>
          <float>0.295892835</float>
          <float>0.09863094</float>
          <float>0.147946417</float>
          <float>0.39452377</float>
          <float>0.04931547</float>
          <float>0.09863094</float>
          <float>0.207415074</float>
          <float>0.143595055</float>
          <float>0.191460073</float>
          <float>0.39452377</float>
          <float>0.131507918</float>
          <float>0.01643849</float>
          <float>0.433976144</float>
          <float>0</float>
          <float>0.108494036</float>
        </Values>
      </signal>
      <resultNeuronIndex>0</resultNeuronIndex>
    </SampleNeuron>
    <SampleNeuron>
      <signal>
        <Values>
          <float>0.202475771</float>
          <float>0.147255108</float>
          <float>0.25769645</float>
          <float>0.217585891</float>
          <float>0.190387666</float>
          <float>0.199453741</float>
          <float>0.276103318</float>
          <float>0.220882654</float>
          <float>0.110441327</float>
          <float>0.165661991</float>
          <float>0.165661991</float>
          <float>0.276103318</float>
          <float>0.0920344442</float>
          <float>0.202475771</float>
          <float>0.312917084</float>
          <float>0.22778523</float>
          <float>0.151856825</float>
          <float>0.22778523</float>
          <float>0</float>
          <float>0.202475771</float>
          <float>0.404951543</float>
        </Values>
      </signal>
      <resultNeuronIndex>1</resultNeuronIndex>
    </SampleNeuron>
    <SampleNeuron>
      <signal>
        <Values>
          <float>0.2867447</float>
          <float>0.07820311</float>
          <float>0.217230842</float>
          <float>0.26067704</float>
          <float>0.173784673</float>
          <float>0.147716984</float>
          <float>0.105850674</float>
          <float>0.264626682</float>
          <float>0.211701348</float>
          <float>0.264626682</float>
          <float>0</float>
          <float>0.31755203</float>
          <float>0.194059566</float>
          <float>0.176417783</float>
          <float>0.211701348</float>
          <float>0.359580934</float>
          <float>0.06849161</float>
          <float>0.154106125</float>
          <float>0.349307239</float>
          <float>0.232871473</float>
          <float>0</float>
        </Values>
      </signal>
      <resultNeuronIndex>0</resultNeuronIndex>
    </SampleNeuron>
    <SampleNeuron>
      <signal>
        <Values>
          <float>0.13727963</float>
          <float>0.13727963</float>
          <float>0.3002992</float>
          <float>0.156779587</float>
          <float>0.0870997757</float>
          <float>0.3309791</float>
          <float>0.0522598624</float>
          <float>0.156779587</float>
          <float>0.365819037</float>
          <float>0.0522598624</float>
          <float>0.156779587</float>
          <float>0.365819037</float>
          <float>0.121939681</float>
          <float>0.0522598624</float>
          <float>0.400658935</float>
          <float>0.1916195</float>
          <float>0.121939681</float>
          <float>0.2612993</float>
          <float>0.1916195</float>
          <float>0.1916195</float>
          <float>0.1916195</float>
        </Values>
      </signal>
      <resultNeuronIndex>0</resultNeuronIndex>
    </SampleNeuron>
    <SampleNeuron>
      <signal>
        <Values>
          <float>0.2811613</float>
          <float>0.117906362</float>
          <float>0.208603561</float>
          <float>0.244882435</float>
          <float>0.126976088</float>
          <float>0.235812724</float>
          <float>0.165728524</float>
          <float>0.2762142</float>
          <float>0.165728524</float>
          <float>0.220971361</float>
          <float>0.11048568</float>
          <float>0.2762142</float>
          <float>0.23938565</float>
          <float>0.11048568</float>
          <float>0.257799923</float>
          <float>0.357453674</float>
          <float>0.0714907348</float>
          <float>0.178726837</float>
          <float>0.364602774</float>
          <float>0.121534251</float>
          <float>0.121534251</float>
        </Values>
      </signal>
      <resultNeuronIndex>0</resultNeuronIndex>
    </SampleNeuron>
    <SampleNeuron>
      <signal>
        <Values>
          <float>0.239404842</float>
          <float>0.124135852</float>
          <float>0.230538</float>
          <float>0.319206476</float>
          <float>0.168470085</float>
          <float>0.106402151</float>
          <float>0.216028616</float>
          <float>0.270035774</float>
          <float>0.108014308</float>
          <float>0.324042946</float>
          <float>0.162021473</float>
          <float>0.108014308</float>
          <float>0.252033383</float>
          <float>0.180023849</float>
          <float>0.162021473</float>
          <float>0.349458069</float>
          <float>0.104837418</float>
          <float>0.139783219</float>
          <float>0.237631485</float>
          <float>0</float>
          <float>0.35644722</float>
