<?xml version="1.0"?>
<NeuralNetwork xmlns:xsi="http://www.w3.org/2001/XMLSchema-instance" xmlns:xsd="http://www.w3.org/2001/XMLSchema">
  <sampleNeuron>
    <SampleNeuron>
      <signal>
        <Values>
          <float>0.310056</float>
          <float>0.1192523</float>
          <float>0.0851802155</float>
          <float>0.166953221</float>
          <float>0.14991717</float>
          <float>0.1976181</float>
          <float>0.05144885</float>
          <float>0.154346555</float>
          <float>0.3086931</float>
          <float>0.463039637</float>
          <float>0.05144885</float>
          <float>0</float>
          <float>0.130337089</float>
          <float>0.123477235</float>
          <float>0.260674179</float>
          <float>0.3772916</float>
          <float>0.1028977</float>
          <float>0.0342992358</float>
          <float>0.44099015</float>
          <float>0</float>
          <float>0.07349836</float>
        </Values>
      </signal>
      <resultNeuronIndex>0</resultNeuronIndex>
    </SampleNeuron>
    <SampleNeuron>
      <signal>
        <Values>
          <float>0.2783366</float>
          <float>0.155541047</float>
          <float>0.184193343</float>
          <float>0.261963874</float>
          <float>0.159634218</float>
          <float>0.196472913</float>
          <float>0.3708426</float>
          <float>0.1854213</float>
          <float>0.0618071</float>
          <float>0.2472284</float>
          <float>0.1236142</float>
          <float>0.2472284</float>
          <float>0.214264616</float>
          <float>0.173059881</float>
          <float>0.230746508</float>
          <float>0.346119761</float>
          <float>0.131855145</float>
          <float>0.1400961</float>
          <float>0.264887571</float>
          <float>0.176591724</float>
          <float>0.176591724</float>
        </Values>
      </signal>
      <resultNeuronIndex>0</resultNeuronIndex>
    </SampleNeuron>
    <SampleNeuron>
      <signal>
        <Values>
          <float>0.187716961</float>
          <float>0.175474554</float>
          <float>0.2530098</float>
          <float>0.187716961</float>
          <float>0.179555342</float>
          <float>0.248929024</float>
          <float>0.06162013</float>
          <float>0.123240262</float>
          <float>0.4313409</float>
          <float>0.246480525</float>
          <float>0.123240262</float>
          <float>0.246480525</float>
          <float>0.123240262</float>
          <float>0.213616461</float>
          <float>0.279344618</float>
          <float>0.2382645</float>
          <float>0.164320365</float>
          <float>0.213616461</float>
          <float>0.154050335</float>
          <float>0.2310755</float>
          <float>0.2310755</float>
        </Values>
      </signal>
      <resultNeuronIndex>1</resultNeuronIndex>
    </SampleNeuron>
    <SampleNeuron>
      <signal>
        <Values>
          <float>0.219037041</float>
          <float>0.181842059</float>
          <float>0.223169819</float>
          <float>0.235568151</float>
          <float>0.161178187</float>
          <float>0.2273026</float>
          <float>0.374429375</float>
          <float>0.0624048933</float>
          <float>0.187214687</float>
          <float>0.187214687</float>
          <float>0.187214687</float>
          <float>0.249619573</float>
          <float>0.188856915</float>
          <float>0.188856915</float>
          <float>0.246335119</float>
          <float>0.274581522</float>
          <float>0.224657625</float>
          <float>0.124809787</float>
          <float>0.08914985</float>
          <float>0.267449558</float>
          <float>0.267449558</float>
        </Values>
      </signal>
      <resultNeuronIndex>2</resultNeuronIndex>
    </SampleNeuron>
    <SampleNeuron>
      <signal>
        <Values>
          <float>0.367015749</float>
          <float>0.10044641</float>
          <float>0.119763032</float>
          <float>0.299445957</float>
          <float>0.143889621</float>
          <float>0.143889621</float>
          <float>0.176167563</float>
          <float>0.234890074</float>
          <float>0.176167563</float>
          <float>0.2936126</float>
          <float>0.05872252</float>
          <float>0.234890074</float>
          <float>0.2505494</float>
          <float>0.148763716</float>
          <float>0.187912047</float>
          <float>0.4249656</float>
          <float>0.07726648</float>
          <float>0.08499312</float>
          <float>0.251667947</float>
          <float>0.251667947</float>
          <float>0.08388931</float>
        </Values>
      </signal>
      <resultNeuronIndex>0</resultNeuronIndex>
    </SampleNeuron>
    <SampleNeuron>
      <signal>
        <Values>
          <float>0.3078491</float>
          <float>0.114456721</float>
          <float>0.173658475</float>
          <float>0.205232754</float>
          <float>0.126297072</float>
          <float>0.2644345</float>
          <float>0.119192868</float>
          <float>0.119192868</float>
          <float>0.3575786</float>
          <float>0.297982156</float>
          <float>0.119192868</float>
          <float>0.1787893</float>
          <float>0.164674342</float>
          <float>0.0862579942</float>
          <float>0.345031977</float>
          <float>0.3763985</float>
          <float>0.101941273</float>
          <float>0.117624544</float>
          <float>0.170275524</float>
          <float>0.170275524</float>
          <float>0.2554133</float>
        </Values>
      </signal>
      <resultNeuronIndex>1</resultNeuronIndex>
    </SampleNeuron>
    <SampleNeuron>
      <signal>
        <Values>
          <float>0.234628022</float>
          <float>0.153721824</float>
          <float>0.2224921</float>
          <float>0.315534234</float>
          <float>0.117314011</float>
          <float>0.17799367</float>
          <float>0.277655423</float>
          <float>0.166593254</float>
          <float>0.166593254</float>
          <float>0.3887176</float>
          <float>0.05553109</float>
          <float>0.166593254</float>
          <float>0.244336784</float>
          <float>0.130312949</float>
          <float>0.236192212</float>
          <float>0.276915</float>
          <float>0.130312949</float>
          <float>0.203613982</float>
          <float>0.2617894</float>
          <float>0.08726314</float>
          <float>0.2617894</float>
        </Values>
      </signal>
      <resultNeuronIndex>2</resultNeuronIndex>
    </SampleNeuron>
    <SampleNeuron>
      <signal>
        <Values>
          <float>0.271467149</float>
          <float>0.15170224</float>
          <float>0.179647371</float>
          <float>0.30340448</float>
          <float>0.14771007</float>
          <float>0.15170224</float>
          <float>0.164404571</float>
          <float>0.2192061</float>
          <float>0.2192061</float>
          <float>0.274007618</float>
          <float>0.109603047</float>
          <float>0.2192061</float>
          <float>0.2538176</float>
          <float>0.15070419</float>
          <float>0.198294982</float>
          <float>0.337577373</float>
          <float>0.12860091</float>
          <float>0.136638463</float>
          <float>0.08611668</float>
          <float>0.08611668</float>
          <float>0.430583417</float>
        </Values>
      </signal>
      <resultNeuronIndex>1</resultNeuronIndex>
    </SampleNeuron>
    <SampleNeuron>
      <signal>
        <Values>
          <float>0.262423128</float>
          <float>0.159914076</float>
          <float>0.196817353</float>
          <float>0.188616619</float>
          <float>0.176315546</float>
          <float>0.2542224</float>
          <float>0.225147113</float>
          <float>0.168860331</float>
          <float>0.225147113</float>
          <float>0.337720662</float>
          <float>0.168860331</float>
          <float>0.112573557</float>
          <float>0.1403417</float>
          <float>0.181618661</float>
          <float>0.297194183</float>
          <float>0.313704967</float>
          <float>0.148597091</float>
          <float>0.156852484</float>
          <float>0.353802621</float>
          <float>0.176901311</float>
          <float>0.0884506553</float>
        </Values>
      </signal>
      <resultNeuronIndex>2</resultNeuronIndex>
    </SampleNeuron>
    <SampleNeuron>
      <signal>
        <Values>
          <float>0.187218845</float>
          <float>0.164294109</float>
          <float>0.225426778</float>
          <float>0.359154552</float>
          <float>0.09934062</float>
          <float>0.118444577</float>
          <float>0.3146944</float>
          <float>0.05244907</float>
          <float>0.20979628</float>
          <float>0.05244907</float>
          <float>0.1573472</float>
          <float>0.367143452</float>
          <float>0.300008655</float>
          <float>0.123080477</float>
          <float>0.1538506</float>
          <float>0.2307759</float>
          <float>0.192313254</float>
          <float>0.1538506</float>
          <float>0.08241997</float>
          <float>0.08241997</float>
          <float>0.4120998</float>
        </Values>
      </signal>
      <resultNeuronIndex>2</resultNeuronIndex>
    </SampleNeuron>
    <SampleNeuron>
      <signal>
        <Values>
          <float>0.210515425</float>
          <float>0.193674192</float>
          <float>0.231566966</float>
          <float>0.205082759</float>
          <float>0.16406621</float>
          <float>0.266607583</float>
          <float>0.173388168</float>
          <float>0.173388168</float>
          <float>0.288980275</float>
          <float>0.231184229</float>
          <float>0.231184229</float>
          <float>0.173388168</float>
          <float>0.179670334</float>
          <float>0.138207957</float>
          <float>0.3178783</float>
          <float>0.262779385</float>
          <float>0.161058336</float>
          <float>0.211918876</float>
          <float>0.3178783</float>
          <float>0.158939153</float>
          <float>0.158939153</float>
        </Values>
      </signal>
      <resultNeuronIndex>1</resultNeuronIndex>
    </SampleNeuron>
    <SampleNeuron>
      <signal>
        <Values>
          <float>0.192967564</float>
          <float>0.122460179</float>
          <float>0.244920358</float>
          <float>0.34140414</float>
          <float>0.129882008</float>
          <float>0.08906195</float>
          <float>0.509407341</float>
          <float>0.0509407371</float>
          <float>0</float>
          <float>0.101881474</float>
          <float>0.152822211</float>
          <float>0.305644423</float>
          <float>0.268967062</float>
          <float>0.149426162</float>
          <float>0.141954839</float>
          <float>0.231610537</float>
          <float>0.15689747</float>
          <float>0.171840087</float>
          <float>0.08004973</float>
          <float>0.160099462</float>
          <float>0.320198923</float>
        </Values>
      </signal>
      <resultNeuronIndex>2</resultNeuronIndex>
    </SampleNeuron>
    <SampleNeuron>
      <signal>
        <Values>
          <float>0.18230617</float>
          <float>0.20716612</float>
          <float>0.236169383</float>
          <float>0.191863447</float>
          <float>0.133470222</float>
          <float>0.300308</float>
          <float>0.284382582</float>
          <float>0.170629561</float>
          <float>0.170629561</float>
          <float>0.284382582</float>
          <float>0.0568765178</float>
          <float>0.284382582</float>
          <float>0.169092342</float>
          <float>0.118364647</float>
          <float>0.338184685</float>
          <float>0.2335729</float>
          <float>0.183521554</float>
          <float>0.208547235</float>
          <float>0.208547235</float>
          <float>0.208547235</float>
          <float>0.208547235</float>
        </Values>
      </signal>
      <resultNeuronIndex>2</resultNeuronIndex>
    </SampleNeuron>
    <SampleNeuron>
      <signal>
        <Values>
          <float>0.324865282</float>
          <float>0.12359006</float>
          <float>0.08474747</float>
          <float>0.204806373</float>
          <float>0.130652353</float>
          <float>0.1977441</float>
          <float>0.339310884</float>
          <float>0</float>
          <float>0.193891943</float>
          <float>0.484729856</float>
          <float>0.0484729856</float>
          <float>0</float>
          <float>0.168379828</float>
          <float>0.15434818</float>
          <float>0.2104748</float>
          <float>0.3910154</float>
          <float>0.106640562</float>
          <float>0.0355468579</float>
          <float>0.304687351</float>
          <float>0.152343675</float>
          <float>0.07617184</float>
        </Values>
      </signal>
      <resultNeuronIndex>0</resultNeuronIndex>
    </SampleNeuron>
    <SampleNeuron>
      <signal>
        <Values>
          <float>0.3377627</float>
          <float>0.09342373</float>
          <float>0.111389831</float>
          <float>0.186847463</float>
          <float>0.114983052</float>
          <float>0.240745768</float>
          <float>0.09865023</float>
          <float>0.147975355</float>
          <float>0.2959507</float>
          <float>0.2959507</float>
          <float>0.049325116</float>
          <float>0.197300464</float>
          <float>0.149922386</float>
          <float>0.0856699347</float>
          <float>0.306983948</float>
          <float>0.390654951</float>
          <float>0.0723435059</float>
          <float>0.07957785</float>
          <float>0.4650654</float>
          <float>0.0775109</float>
          <float>0</float>
        </Values>
      </signal>
      <resultNeuronIndex>0</resultNeuronIndex>
    </SampleNeuron>
    <SampleNeuron>
      <signal>
        <Values>
          <float>0.198511481</float>
          <float>0.177393243</float>
          <float>0.2618662</float>
          <float>0.2872081</float>
          <float>0.160498649</float>
          <float>0.190064177</float>
          <float>0.231916711</float>
          <float>0.173937529</float>
          <float>0.231916711</float>
          <float>0.2898959</float>
          <float>0.173937529</float>
          <float>0.173937529</float>
          <float>0.221093923</float>
          <float>0.178575858</float>
          <float>0.23810114</float>
          <float>0.246604756</float>
          <float>0.170072258</float>
          <float>0.221093923</float>
          <float>0.2733304</float>
          <float>0.2733304</float>
          <float>0.09111013</float>
        </Values>
      </signal>
      <resultNeuronIndex>0</resultNeuronIndex>
    </SampleNeuron>
    <SampleNeuron>
      <signal>
        <Values>
          <float>0.218464762</float>
          <float>0.173123032</float>
          <float>0.230830714</float>
          <float>0.20609884</float>
          <float>0.189610928</float>
          <float>0.226708725</float>
          <float>0.226334</float>
          <float>0.226334</float>
          <float>0.169750512</float>
          <float>0.169750512</float>
          <float>0.169750512</float>
          <float>0.2829175</float>
          <float>0.157679349</float>
          <float>0.21577175</float>
          <float>0.248967409</float>
          <float>0.27386415</float>
          <float>0.21577175</float>
          <float>0.132782623</float>
          <float>0.266750783</float>
          <float>0</float>
          <float>0.35566774</float>
        </Values>
      </signal>
      <resultNeuronIndex>2</resultNeuronIndex>
    </SampleNeuron>
    <SampleNeuron>
      <signal>
        <Values>
          <float>0.289624572</float>
          <float>0.146743119</float>
          <float>0.146743119</float>
          <float>0.189221382</float>
          <float>0.166051432</float>
          <float>0.227838</float>
          <float>0.0530100726</float>
          <float>0.159030229</float>
          <float>0.3710705</float>
          <float>0.159030229</float>
          <float>0.21204029</float>
          <float>0.21204029</float>
          <float>0.1477214</float>
          <float>0.1399466</float>
          <float>0.2954428</float>
          <float>0.34209165</float>
          <float>0.1399466</float>
          <float>0.101072535</float>
          <float>0.416507721</float>
          <float>0.166603088</float>
          <float>0</float>
        </Values>
      </signal>
      <resultNeuronIndex>0</resultNeuronIndex>
    </SampleNeuron>
    <SampleNeuron>
      <signal>
        <Values>
          <float>0.182412237</float>
          <float>0.126895472</float>
          <float>0.2855148</float>
          <float>0.177264974</float>
          <float>0.177264974</float>
          <float>0.240292534</float>
          <float>0.0540747754</float>
          <float>0.162224323</float>
          <float>0.3785234</float>
          <float>0.270373881</float>
          <float>0.162224323</float>
          <float>0.162224323</float>
          <float>0.1189645</float>
          <float>0.20620513</float>
          <float>0.269652873</float>
          <float>0.1929154</float>
          <float>0.14468655</float>
          <float>0.257220536</float>
          <float>0.198274165</float>
          <float>0</float>
          <float>0.396548331</float>
        </Values>
      </signal>
      <resultNeuronIndex>0</resultNeuronIndex>
    </SampleNeuron>
    <SampleNeuron>
      <signal>
        <Values>
          <float>0.3019531</float>
          <float>0.152989566</float>
          <float>0.152989566</float>
          <float>0.209354147</float>
          <float>0.128833324</float>
          <float>0.269744754</float>
          <float>0.110533133</float>
          <float>0.1657997</float>
          <float>0.3315994</float>
          <float>0.221066266</float>
          <float>0.1657997</float>
          <float>0.221066266</float>
          <float>0.167981267</float>
          <float>0.0959892944</float>
          <float>0.343961626</float>
          <float>0.356653541</float>
          <float>0.145903721</float>
          <float>0.105374917</float>
          <float>0.151983052</float>
          <float>0.151983052</float>
          <float>0.3039661</float>
        </Values>
      </signal>
      <resultNeuronIndex>1</resultNeuronIndex>
    </SampleNeuron>
    <SampleNeuron>
      <signal>
        <Values>
          <float>0.172322989</float>
          <float>0.119876862</float>
          <float>0.269722939</float>
          <float>0.238165945</float>
          <float>0.145132363</float>
          <float>0.178624466</float>
          <float>0.306503356</float>
          <float>0.153251678</float>
          <float>0.102167778</float>
          <float>0.255419463</float>
          <float>0.153251678</float>
          <float>0.153251678</float>
          <float>0.1947999</float>
          <float>0.157338381</float>
          <float>0.209784508</float>
          <float>0.18224521</float>
          <float>0.136683926</float>
          <float>0.242993638</float>
          <float>0</float>
          <float>0</float>
          <float>0.5619228</float>
        </Values>
      </signal>
      <resultNeuronIndex>1</resultNeuronIndex>
    </SampleNeuron>
    <SampleNeuron>
      <signal>
        <Values>
          <float>0.347489357</float>
          <float>0.09611408</float>
          <float>0.114597552</float>
          <float>0.210711628</float>
          <float>0.136777729</float>
          <float>0.210711628</float>
          <float>0.3552188</float>
          <float>0</float>
          <float>0.202982172</float>
          <float>0.304473281</float>
          <float>0.0507455431</float>
          <float>0.202982172</float>
          <float>0.173984721</float>
          <float>0.159486</float>
          <float>0.224730268</float>
          <float>0.401904732</float>
          <float>0.0744268</float>
          <float>0.0818694755</float>
          <float>0.209325373</float>
          <float>0</float>
          <float>0.3488756</float>
        </Values>
      </signal>
      <resultNeuronIndex>0</resultNeuronIndex>
    </SampleNeuron>
    <SampleNeuron>
      <signal>
        <Values>
          <float>0.20159784</float>
          <float>0.1697666</float>
          <float>0.233429059</float>
          <float>0.188247</float>
          <float>0.168220714</float>
          <float>0.2483258</float>
          <float>0.32988736</float>
          <float>0.16494368</float>
          <float>0.109962456</float>
          <float>0.109962456</float>
          <float>0.219924912</float>
          <float>0.274906158</float>
          <float>0.143240571</float>
          <float>0.1750718</float>
          <float>0.286481142</float>
          <float>0.27111432</float>
          <float>0.18769452</float>
          <float>0.145984635</float>
          <float>0.20159784</float>
          <float>0.403195679</float>
          <float>0</float>
        </Values>
      </signal>
      <resultNeuronIndex>0</resultNeuronIndex>
    </SampleNeuron>
    <SampleNeuron>
      <signal>
        <Values>
          <float>0.186340854</float>
          <float>0.144931778</float>
          <float>0.258806735</float>
          <float>0.175851464</float>
          <float>0.175851464</float>
          <float>0.238376439</float>
          <float>0.05364358</float>
          <float>0.160930738</float>
          <float>0.37550506</float>
          <float>0.268217921</float>
          <float>0.05364358</float>
          <float>0.268217921</float>
          <float>0.118015878</float>
          <float>0.204560846</float>
          <float>0.267502666</float>
          <float>0.244170785</float>
          <float>0.203475654</float>
          <float>0.142432958</float>
          <float>0.393386275</float>
          <float>0</float>
          <float>0.196693137</float>
        </Values>
      </signal>
      <resultNeuronIndex>1</resultNeuronIndex>
    </SampleNeuron>
    <SampleNeuron>
      <signal>
        <Values>
          <float>0.1984811</float>
          <float>0.160065413</float>
          <float>0.249702021</float>
          <float>0.173209861</float>
          <float>0.201406792</float>
          <float>0.233631879</float>
          <float>0.221181288</float>
          <float>0.0552953221</float>
          <float>0.33177194</float>
          <float>0.221181288</float>
          <float>0.110590644</float>
          <float>0.276476622</float>
          <float>0.134288639</float>
          <float>0.221181288</float>
          <float>0.25277862</float>
          <float>0.2280932</float>
          <float>0.177405819</float>
          <float>0.202749521</float>
          <float>0.243299425</float>
          <float>0.364949137</float>
          <float>0</float>
        </Values>
      </signal>
      <resultNeuronIndex>0</resultNeuronIndex>
    </SampleNeuron>
    <SampleNeuron>
      <signal>
        <Values>
          <float>0.311795652</float>
          <float>0.114456624</float>
          <float>0.16971156</float>
          <float>0.2012858</float>
          <float>0.181551889</float>
          <float>0.213126138</float>
          <float>0.27089265</float>
          <float>0.216714129</float>
          <float>0.108357064</float>
          <float>0.3250712</float>
          <float>0.1625356</float>
          <float>0.108357064</float>
          <float>0.1589237</float>
          <float>0.206600785</float>
          <float>0.230439335</float>
          <float>0.3792497</float>
          <float>0.100617267</float>
          <float>0.116096847</float>
          <float>0.297981918</float>
          <float>0.297981918</float>
          <float>0</float>
        </Values>
      </signal>
      <resultNeuronIndex>2</resultNeuronIndex>
    </SampleNeuron>
    <SampleNeuron>
      <signal>
        <Values>
          <float>0.19336611</float>
          <float>0.169688642</float>
          <float>0.232828587</float>
          <float>0.26834482</float>
          <float>0.1499574</float>
          <float>0.177581131</float>
          <float>0.216684863</float>
          <float>0.108342431</float>
          <float>0.270856082</float>
          <float>0</float>
          <float>0.162513644</float>
          <float>0.433369726</float>
          <float>0.20657289</float>
          <float>0.166847333</float>
          <float>0.222463116</float>
          <float>0.235217124</float>
          <float>0.196014255</float>
          <float>0.164651975</float>
          <float>0.148970842</float>
          <float>0.07448542</float>
          <float>0.3724271</float>
        </Values>
      </signal>
      <resultNeuronIndex>0</resultNeuronIndex>
    </SampleNeuron>
    <SampleNeuron>
      <signal>
        <Values>
          <float>0.184749484</float>
          <float>0.161164433</float>
          <float>0.2476429</float>
          <float>0.182024091</float>
          <float>0.134539545</float>
          <float>0.2769932</float>
          <float>0.269798577</float>
          <float>0.21583885</float>
          <float>0.107919425</float>
          <float>0.323758274</float>
          <float>0.161879137</float>
          <float>0.107919425</float>
          <float>0.176462844</float>
          <float>0.11229454</float>
          <float>0.304799438</float>
          <float>0.229508638</float>
          <float>0.158281833</float>
          <float>0.205766365</float>
          <float>0</float>
          <float>0.1483892</float>
          <float>0.445167631</float>
        </Values>
      </signal>
      <resultNeuronIndex>0</resultNeuronIndex>
    </SampleNeuron>
    <SampleNeuron>
      <signal>
        <Values>
          <float>0.175562724</float>
          <float>0.175562724</float>
          <float>0.23798503</float>
          <float>0.19637017</float>
          <float>0.153414175</float>
          <float>0.239326134</float>
          <float>0.2677775</float>
          <float>0.0535555</float>
          <float>0.2677775</float>
          <float>0</float>
          <float>0.214222</float>
          <float>0.37488848</float>
          <float>0.162945449</float>
          <float>0.137876928</float>
          <float>0.288288116</float>
          <float>0.235644192</float>
          <float>0.141386509</float>
          <float>0.212079778</float>
          <float>0.235644192</float>
          <float>0</float>
          <float>0.3534663</float>
        </Values>
      </signal>
      <resultNeuronIndex>1</resultNeuronIndex>
    </SampleNeuron>
    <SampleNeuron>
      <signal>
        <Values>
          <float>0.257606268</float>
          <float>0.163559526</float>
          <float>0.196271449</float>
          <float>0.191618443</float>
          <float>0.159682035</float>
          <float>0.266136736</float>
          <float>0.224522635</float>
          <float>0.112261318</float>
          <float>0.2806533</float>
          <float>0.2806533</float>
          <float>0.224522635</float>
          <float>0.112261318</float>
          <float>0.132307976</float>
          <float>0.08820532</float>
          <float>0.396923929</float>
          <float>0.304602385</float>
          <float>0.14818494</float>
          <float>0.164649934</float>
          <float>0.205812424</float>
          <float>0.205812424</float>
          <float>0.205812424</float>
        </Values>
      </signal>
      <resultNeuronIndex>2</resultNeuronIndex>
    </SampleNeuron>
    <SampleNeuron>
      <signal>
        <Values>
          <float>0.176016361</float>
          <float>0.200576767</float>
          <float>0.241510808</float>
          <float>0.216950372</float>
          <float>0.171922952</float>
          <float>0.2292306</float>
          <float>0.168573812</float>
          <float>0.112382539</float>
          <float>0.337147623</float>
          <float>0.224765077</float>
          <float>0.05619127</float>
          <float>0.337147623</float>
          <float>0.164827719</float>
          <float>0.131862178</float>
          <float>0.321414024</float>
          <float>0.217171654</float>
          <float>0.183760628</float>
          <float>0.217171654</float>
          <float>0.15452598</float>
          <float>0.309051961</float>
          <float>0.15452598</float>
        </Values>
      </signal>
      <resultNeuronIndex>1</resultNeuronIndex>
    </SampleNeuron>
    <SampleNeuron>
      <signal>
        <Values>
          <float>0.232295319</float>
          <float>0.146712825</float>
          <float>0.236370653</float>
          <float>0.301576376</float>
          <float>0.158938885</float>
          <float>0.154863536</float>
          <float>0.167830586</float>
          <float>0.22377412</float>
          <float>0.22377412</float>
          <float>0.335661173</float>
          <float>0</float>
          <float>0.279717654</float>
          <float>0.246151522</float>
          <float>0.16410102</float>
          <float>0.205126271</float>
          <float>0.2744257</float>
          <float>0.124738947</float>
          <float>0.216214165</float>
          <float>0.1538447</float>
          <float>0.1538447</float>
          <float>0.3076894</float>
        </Values>
      </signal>
      <resultNeuronIndex>0</resultNeuronIndex>
    </SampleNeuron>
    <SampleNeuron>
      <signal>
        <Values>
          <float>0.192085549</float>
          <float>0.166227877</float>
          <float>0.199473441</float>
          <float>0.339843661</float>
          <float>0.129288346</float>
          <float>0.08865487</float>
          <float>0.507079</float>
          <float>0.0507079</float>
          <float>0</float>
          <float>0.2535395</float>
          <float>0.2028316</float>
          <float>0.1014158</float>
          <float>0.2677377</float>
          <float>0.148743168</float>
          <float>0.141306</float>
          <float>0.2305519</float>
          <float>0.141306</float>
          <float>0.185928956</float>
          <float>0</float>
          <float>0.239051521</float>
          <float>0.318735361</float>
        </Values>
      </signal>
      <resultNeuronIndex>2</resultNeuronIndex>
    </SampleNeuron>
    <SampleNeuron>
      <signal>
        <Values>
          <float>0.21118547</float>
          <float>0.129960284</float>
          <float>0.272104323</float>
          <float>0.19900167</float>
          <float>0.174634144</float>
          <float>0.239614263</float>
          <float>0.05575001</float>
          <float>0.167250022</float>
          <float>0.390250057</float>
          <float>0.111500017</float>
          <float>0.223000035</float>
          <float>0.278750032</float>
          <float>0.15535669</float>
          <float>0.147180021</float>
          <float>0.310713381</float>
          <float>0.256902069</float>
          <float>0.1574561</float>
          <float>0.198891908</float>
          <float>0.306625038</float>
          <float>0.153312519</float>
          <float>0.153312519</float>
        </Values>
      </signal>
      <resultNeuronIndex>0</resultNeuronIndex>
    </SampleNeuron>
    <SampleNeuron>
      <signal>
        <Values>
          <float>0.281400472</float>
          <float>0.15311496</float>
          <float>0.190359145</float>
          <float>0.215474</float>
          <float>0.1723792</float>
          <float>0.237021387</float>
          <float>0.170420349</float>
          <float>0.170420349</float>
          <float>0.2840339</float>
          <float>0.227227122</float>
          <float>0.113613561</float>
          <float>0.2840339</float>
          <float>0.1339017</float>
          <float>0.156218648</float>
          <float>0.334754229</float>
          <float>0.34992975</float>
          <float>0.133306578</float>
          <float>0.141638234</float>
          <float>0.208291531</float>
          <float>0.208291531</float>
          <float>0.208291531</float>
        </Values>
      </signal>
      <resultNeuronIndex>0</resultNeuronIndex>
    </SampleNeuron>
    <SampleNeuron>
      <signal>
        <Values>
          <float>0.34847185</float>
          <float>0.09638583</float>
          <float>0.114921562</float>
          <float>0.192771658</float>
          <float>0.166821614</float>
          <float>0.20018594</float>
          <float>0.203556091</float>
          <float>0.203556091</float>
          <float>0.15266706</float>
          <float>0.356223136</float>
          <float>0</float>
          <float>0.203556091</float>
          <float>0.156738177</float>
          <float>0.1940568</float>
          <float>0.208984241</float>
          <float>0.403041065</float>
          <float>0.0746372342</float>
          <float>0.08210095</float>
          <float>0.419834435</float>
          <float>0</float>
          <float>0.1399448</float>
        </Values>
      </signal>
      <resultNeuronIndex>0</resultNeuronIndex>
    </SampleNeuron>
    <SampleNeuron>
      <signal>
        <Values>
          <float>0.314925581</float>
          <float>0.117087722</float>
          <float>0.177650332</float>
          <float>0.169575319</float>
          <float>0.201875389</float>
          <float>0.238212958</float>
          <float>0.16627191</float>
          <float>0.110847943</float>
          <float>0.33254382</float>
          <float>0.277119845</float>
          <float>0.16627191</float>
          <float>0.16627191</float>
          <float>0.134601071</float>
          <float>0.213778168</float>
          <float>0.261284441</float>
          <float>0.387967765</float>
          <float>0.102930225</float>
          <float>0.118765645</float>
          <float>0.304831833</float>
          <float>0.152415916</float>
          <float>0.152415916</float>
        </Values>
      </signal>
      <resultNeuronIndex>2</resultNeuronIndex>
    </SampleNeuron>
    <SampleNeuron>
      <signal>
        <Values>
          <float>0.207453176</float>
          <float>0.1685557</float>
          <float>0.252833545</float>
          <float>0.2582002</float>
          <float>0.166580781</float>
          <float>0.204061449</float>
          <float>0.285837471</float>
          <float>0.171502486</float>
          <float>0.171502486</float>
          <float>0.285837471</float>
          <float>0.114334993</float>
          <float>0.228669986</float>
          <float>0.209614158</float>
          <float>0.184460446</float>
          <float>0.234767854</float>
          <float>0.243836865</float>
          <float>0.179669276</float>
          <float>0.2053363</float>
          <float>0.1257685</float>
          <float>0.1257685</float>
          <float>0.377305478</float>
        </Values>
      </signal>
      <resultNeuronIndex>2</resultNeuronIndex>
    </SampleNeuron>
    <SampleNeuron>
      <signal>
        <Values>
          <float>0.193124235</float>
          <float>0.165535063</float>
          <float>0.236478657</float>
          <float>0.228596032</float>
          <float>0.13794589</float>
          <float>0.228596032</float>
          <float>0.3246207</float>
          <float>0</float>
          <float>0.27051726</float>
          <float>0.0541034527</float>
          <float>0.108206905</float>
          <float>0.432827622</float>
          <float>0.185497537</float>
          <float>0.162310347</float>
          <float>0.247330055</float>
          <float>0.234922886</float>
          <float>0.195769057</float>
          <float>0.164446011</float>
          <float>0.148784488</float>
          <float>0.297568977</float>
          <float>0.148784488</float>
        </Values>
      </signal>
      <resultNeuronIndex>1</resultNeuronIndex>
    </SampleNeuron>
    <SampleNeuron>
      <signal>
        <Values>
          <float>0.211175948</float>
          <float>0.174626276</float>
          <float>0.227420256</float>
          <float>0.1827484</float>
          <float>0.1868095</float>
          <float>0.243664563</float>
          <float>0</float>
          <float>0.2787375</float>
          <float>0.334485</float>
          <float>0.1672425</float>
          <float>0.1672425</float>
          <float>0.2787375</float>
          <float>0.122644491</float>
          <float>0.220760092</float>
          <float>0.2698179</float>
          <float>0.2616416</float>
          <float>0.21258378</float>
          <float>0.1389971</float>
          <float>0.22995843</float>
          <float>0.07665281</float>
          <float>0.30661124</float>
        </Values>
      </signal>
      <resultNeuronIndex>1</resultNeuronIndex>
    </SampleNeuron>
    <SampleNeuron>
      <signal>
        <Values>
          <float>0.217549473</float>
          <float>0.131350636</float>
          <float>0.27091068</float>
          <float>0.2832248</float>
          <float>0.147769466</float>
          <float>0.188816532</float>
          <float>0.225385755</float>
          <float>0.112692878</float>
          <float>0.2817322</float>
          <float>0.169039309</float>
          <float>0.169039309</float>
          <float>0.2817322</float>
          <float>0.214867741</float>
          <float>0.16528289</float>
          <float>0.239660174</float>
          <float>0.2644526</float>
          <float>0.157018736</float>
          <float>0.198339447</float>
          <float>0.07747635</float>
          <float>0.1549527</float>
          <float>0.387381762</float>
        </Values>
      </signal>
      <resultNeuronIndex>0</resultNeuronIndex>
    </SampleNeuron>
    <SampleNeuron>
      <signal>
        <Values>
          <float>0.178436548</float>
          <float>0.140870959</float>
          <float>0.234784931</float>
          <float>0.176135346</float>
          <float>0.146779448</float>
          <float>0.231177628</float>
          <float>0.35260427</float>
          <float>0.100744084</float>
          <float>0.100744084</float>
          <float>0.2518602</float>
          <float>0.100744084</float>
          <float>0.201488167</float>
          <float>0.13298218</float>
          <float>0.147757992</float>
          <float>0.273352265</float>
          <float>0.221636966</float>
          <float>0.20316723</float>
          <float>0.129288226</float>
          <float>0</float>
          <float>0</float>
          <float>0.5540924</float>
        </Values>
      </signal>
      <resultNeuronIndex>0</resultNeuronIndex>
    </SampleNeuron>
    <SampleNeuron>
      <signal>
        <Values>
          <float>0.271821946</float>
          <float>0.141820148</float>
          <float>0.181214646</float>
          <float>0.182422742</float>
          <float>0.126902774</float>
          <float>0.285531223</float>
          <float>0.324467331</float>
          <float>0.162233666</float>
          <float>0.108155772</float>
          <float>0.216311544</float>
          <float>0.108155772</float>
          <float>0.270389438</float>
          <float>0.160772085</float>
          <float>0.112540469</float>
          <float>0.32154417</float>
          <float>0.3410512</float>
          <float>0.126902774</float>
          <float>0.126902774</float>
          <float>0.29742837</float>
          <float>0.29742837</float>
          <float>0</float>
        </Values>
      </signal>
      <resultNeuronIndex>1</resultNeuronIndex>
    </SampleNeuron>
    <SampleNeuron>
      <signal>
        <Values>
          <float>0.160675615</float>
          <float>0.183095455</float>
          <float>0.220461875</float>
          <float>0.3475077</float>
          <float>0.13078247</float>
          <float>0.08594277</float>
          <float>0.512939036</float>
          <float>0.0512939058</float>
          <float>0</float>
          <float>0.153881714</float>
          <float>0.102587812</float>
          <float>0.307763427</float>
          <float>0.2708318</float>
          <float>0.150462121</float>
          <float>0.142939016</float>
          <float>0.190619245</float>
          <float>0.1753697</float>
          <float>0.198244</float>
          <float>0.07052912</float>
          <float>0.211587355</float>
          <float>0.282116473</float>
        </Values>
      </signal>
      <resultNeuronIndex>1</resultNeuronIndex>
    </SampleNeuron>
    <SampleNeuron>
      <signal>
        <Values>
          <float>0.231845215</float>
          <float>0.146428555</float>
          <float>0.235912666</float>
          <float>0.219642818</float>
          <float>0.130158707</float>
          <float>0.2643849</float>
          <float>0.223340526</float>
          <float>0.1675054</float>
          <float>0.223340526</float>
          <float>0.3350108</float>
          <float>0.05583513</float>
          <float>0.223340526</float>
          <float>0.1697094</float>
          <float>0.105058208</float>
          <float>0.3394188</float>
          <float>0.28219375</float>
          <float>0.116197437</float>
          <float>0.215795234</float>
          <float>0.263222754</float>
          <float>0.08774092</float>
          <float>0.263222754</float>
        </Values>
      </signal>
      <resultNeuronIndex>1</resultNeuronIndex>
    </SampleNeuron>
    <SampleNeuron>
      <signal>
        <Values>
          <float>0.1975666</float>
          <float>0.158053279</float>
          <float>0.237079918</float>
          <float>0.1975666</float>
          <float>0.148174942</float>
          <float>0.246958241</float>
          <float>0.269409</float>
          <float>0.107763596</float>
          <float>0.215527192</float>
          <float>0.107763596</float>
          <float>0.1616454</float>
          <float>0.3232908</float>
          <float>0.143065467</float>
          <float>0.0817517</float>
          <float>0.3678826</float>
          <float>0.276593238</float>
          <float>0.177809939</float>
          <float>0.138296619</float>
          <float>0.1975666</float>
          <float>0</float>
          <float>0.3951332</float>
        </Values>
      </signal>
      <resultNeuronIndex>0</resultNeuronIndex>
    </SampleNeuron>
    <SampleNeuron>
      <signal>
        <Values>
          <float>0.1935396</float>
          <float>0.157250911</float>
          <float>0.2580528</float>
          <float>0.198805973</float>
          <float>0.161529854</float>
          <float>0.248507485</float>
          <float>0.276747</float>
          <float>0.110698789</float>
          <float>0.221397579</float>
          <float>0.332096368</float>
          <float>0.110698789</float>
          <float>0.166048184</float>
          <float>0.164895073</float>
          <float>0.152210832</float>
          <float>0.2917374</float>
          <float>0.243537337</float>
          <float>0.15424031</float>
          <float>0.21106568</float>
          <float>0.243537337</float>
          <float>0.36530602</float>
          <float>0</float>
        </Values>
      </signal>
      <resultNeuronIndex>1</resultNeuronIndex>
    </SampleNeuron>
    <SampleNeuron>
      <signal>
        <Values>
          <float>0.178267181</float>
          <float>0.190421775</float>
          <float>0.243091628</float>
          <float>0.311967582</float>
          <float>0.117494278</float>
          <float>0.182318717</float>
          <float>0.222465664</float>
          <float>0.166849256</float>
          <float>0.222465664</float>
          <float>0</float>
          <float>0.3336985</float>
          <float>0.2780821</float>
          <float>0.239751846</float>
          <float>0.132276878</float>
          <float>0.239751846</float>
          <float>0.236555144</float>
          <float>0.154984415</float>
          <float>0.22024101</float>
          <float>0.229417711</float>
          <float>0.07647257</float>
          <float>0.3058903</float>
        </Values>
      </signal>
      <resultNeuronIndex>2</resultNeuronIndex>
    </SampleNeuron>
    <SampleNeuron>
      <signal>
        <Values>
          <float>0.217078149</float>
          <float>0.187856078</float>
          <float>0.2254273</float>
          <float>0.3089189</float>
          <float>0.1628086</float>
          <float>0.158634037</float>
          <float>0.171916783</float>
          <float>0.171916783</float>
          <float>0.286528</float>
          <float>0.229222387</float>
          <float>0.229222387</float>
          <float>0.171916783</float>
          <float>0.2521446</float>
          <float>0.168096423</float>
          <float>0.210120514</float>
          <float>0.260549426</float>
          <float>0.159691587</float>
          <float>0.210120514</float>
          <float>0.1801033</float>
          <float>0.09005165</float>
          <float>0.3602066</float>
        </Values>
      </signal>
      <resultNeuronIndex>1</resultNeuronIndex>
    </SampleNeuron>
    <SampleNeuron>
      <signal>
        <Values>
          <float>0.258868873</float>
          <float>0.160252169</float>
          <float>0.201342463</float>
          <float>0.213669568</float>
          <float>0.180797309</float>
          <float>0.225996658</float>
          <float>0.169217333</float>
          <float>0.225623116</float>
          <float>0.225623116</float>
          <float>0.282028884</float>
          <float>0.169217333</float>
          <float>0.169217333</float>
          <float>0.165456951</float>
          <float>0.140638411</float>
          <float>0.3143682</float>
          <float>0.306095332</float>
          <float>0.140638411</float>
          <float>0.173729792</float>
          <float>0.3877897</float>
          <float>0.155115888</float>
          <float>0.0775579438</float>
        </Values>
      </signal>
      <resultNeuronIndex>1</resultNeuronIndex>
    </SampleNeuron>
    <SampleNeuron>
      <signal>
        <Values>
          <float>0.3512991</float>
          <float>0.09614503</float>
          <float>0.110936567</float>
          <float>0.1553112</float>
          <float>0.184894264</float>
          <float>0.218175232</float>
          <float>0.101523764</float>
          <float>0.15228565</float>
          <float>0.3045713</float>
          <float>0.406095058</float>
          <float>0</float>
          <float>0.15228565</float>
          <float>0.130530551</float>
          <float>0.188544139</float>
          <float>0.239306018</float>
          <float>0.4094792</float>
          <float>0.07445076</float>
          <float>0.07445076</float>
          <float>0.348987937</float>
          <float>0.139595181</float>
          <float>0.06979759</float>
        </Values>
      </signal>
      <resultNeuronIndex>0</resultNeuronIndex>
    </SampleNeuron>
    <SampleNeuron>
      <signal>
        <Values>
          <float>0.3257717</float>
          <float>0.127475873</float>
          <float>0.08144292</float>
          <float>0.155803844</float>
          <float>0.166426837</float>
          <float>0.212459788</float>
          <float>0</float>
          <float>0.291649342</float>
          <float>0.243041128</float>
          <float>0.486082256</float>
          <float>0.0486082248</float>
          <float>0</float>
          <float>0.106938094</float>
          <float>0.199617773</float>
          <float>0.2281346</float>
          <float>0.399235547</float>
          <float>0.106938094</float>
          <float>0.0285168253</float>
          <float>0.200508922</float>
          <float>0.26734525</float>
          <float>0.06683631</float>
        </Values>
      </signal>
      <resultNeuronIndex>2</resultNeuronIndex>
    </SampleNeuron>
    <SampleNeuron>
      <signal>
        <Values>
          <float>0.316510439</float>
          <float>0.117676958</float>
          <float>0.178544357</float>
          <float>0.25564304</float>
          <float>0.162313044</float>
          <float>0.194775671</float>
          <float>0.278514445</float>
          <float>0.16710867</float>
          <float>0.16710867</float>
          <float>0.278514445</float>
          <float>0.111405782</float>
          <float>0.222811565</float>
          <float>0.212413684</float>
          <float>0.179734647</float>
          <float>0.220583454</float>
          <float>0.381962657</float>
          <float>0.10344822</float>
          <float>0.127320886</float>
          <float>0.229774415</float>
          <float>0.07659147</float>
          <float>0.306365877</float>
        </Values>
      </signal>
      <resultNeuronIndex>0</resultNeuronIndex>
    </SampleNeuron>
    <SampleNeuron>
      <signal>
        <Values>
          <float>0.21765928</float>
          <float>0.184173226</float>
          <float>0.230216533</float>
          <float>0.196730509</float>
          <float>0.1674302</float>
          <float>0.267888337</float>
          <float>0.34475404</float>
          <float>0.17237702</float>
          <float>0.114918008</float>
          <float>0.17237702</float>
          <float>0.229836017</float>
          <float>0.229836017</float>
          <float>0.143264458</float>
          <float>0.168546423</float>
          <float>0.320238173</float>
          <float>0.269674271</float>
          <float>0.21911034</float>
          <float>0.143264458</float>
          <float>0.237018391</float>
          <float>0.158012256</float>
          <float>0.237018391</float>
        </Values>
      </signal>
      <resultNeuronIndex>1</resultNeuronIndex>
    </SampleNeuron>
    <SampleNeuron>
      <signal>
        <Values>
          <float>0.204336628</float>
          <float>0.17931582</float>
          <float>0.246037975</float>
          <float>0.2126769</float>
          <float>0.191826224</float>
          <float>0.2251873</float>
          <float>0.171733752</float>
          <float>0.286222935</float>
          <float>0.171733752</float>
          <float>0.114489168</float>
          <float>0.114489168</float>
          <float>0.400712073</float>
          <float>0.1739934</float>
          <float>0.21542041</float>
          <float>0.2402766</float>
          <float>0.2402766</float>
          <float>0.21542041</float>
          <float>0.1739934</float>
          <float>0.2361339</float>
          <float>0.1574226</float>
          <float>0.2361339</float>
        </Values>
      </signal>
      <resultNeuronIndex>0</resultNeuronIndex>
    </SampleNeuron>
    <SampleNeuron>
      <signal>
        <Values>
          <float>0.227845952</float>
          <float>0.1479</float>
          <float>0.227845952</float>
          <float>0.27581352</float>
          <float>0.1479</float>
          <float>0.179878384</float>
          <float>0.219487965</float>
          <float>0.109743983</float>
          <float>0.274359971</float>
          <float>0.274359971</float>
          <float>0.109743983</float>
          <float>0.219487965</float>
          <float>0.20924519</float>
          <float>0.160957843</float>
          <float>0.233388856</float>
          <float>0.273628324</float>
          <float>0.120718382</float>
          <float>0.20924519</float>
          <float>0</float>
          <float>0.172454834</float>
          <float>0.431137085</float>
        </Values>
      </signal>
      <resultNeuronIndex>1</resultNeuronIndex>
    </SampleNeuron>
    <SampleNeuron>
      <signal>
        <Values>
          <float>0.205159545</float>
          <float>0.173103377</float>
          <float>0.256449431</float>
          <float>0.218507543</float>
          <float>0.166481927</float>
          <float>0.2497229</float>
          <float>0.173103377</float>
          <float>0.173103377</float>
          <float>0.2885056</float>
          <float>0.2885056</float>
          <float>0.173103377</float>
          <float>0.173103377</float>
          <float>0.126942471</float>
          <float>0.148099557</float>
          <float>0.359670341</float>
          <float>0.241190687</float>
          <float>0.177719459</float>
          <float>0.215802208</float>
          <float>0.2115708</float>
          <float>0.2115708</float>
          <float>0.2115708</float>
        </Values>
      </signal>
      <resultNeuronIndex>1</resultNeuronIndex>
    </SampleNeuron>
    <SampleNeuron>
      <signal>
        <Values>
          <float>0.178726912</float>
          <float>0.155910715</float>
          <float>0.243372813</float>
          <float>0.3024028</float>
          <float>0.107180744</float>
          <float>0.168426871</float>
          <float>0.3152784</float>
          <float>0.105092809</float>
          <float>0.1576392</float>
          <float>0.262732029</float>
          <float>0.210185617</float>
          <float>0.105092809</float>
          <float>0.234328553</float>
          <float>0.124975227</float>
          <float>0.218706653</float>
          <float>0.22816202</float>
          <float>0.152108014</float>
          <float>0.1977404</float>
          <float>0.072251305</float>
          <float>0</float>
          <float>0.5057591</float>
        </Values>
      </signal>
      <resultNeuronIndex>2</resultNeuronIndex>
    </SampleNeuron>
    <SampleNeuron>
      <signal>
        <Values>
          <float>0.165059149</float>
          <float>0.176313192</float>
          <float>0.225080654</float>
          <float>0.360129058</float>
          <float>0.0975349545</float>
          <float>0.108788982</float>
          <float>0.463461548</float>
          <float>0</float>
          <float>0.102991454</float>
          <float>0.0514957272</float>
          <float>0.308974355</float>
          <float>0.205982909</float>
          <float>0.3021083</float>
          <float>0.120843306</float>
          <float>0.143501416</float>
          <float>0.21147579</float>
          <float>0.143501416</float>
          <float>0.21147579</float>
          <float>0.161843717</float>
          <float>0.08092186</float>
          <float>0.323687434</float>
        </Values>
      </signal>
      <resultNeuronIndex>2</resultNeuronIndex>
    </SampleNeuron>
    <SampleNeuron>
      <signal>
        <Values>
          <float>0.17579253</float>
          <float>0.209276825</float>
          <float>0.246946648</float>
          <float>0.3097297</float>
          <float>0.167421445</float>
          <float>0.154864848</float>
          <float>0.172368</float>
          <float>0.229824</float>
          <float>0.229824</float>
          <float>0.114912</float>
          <float>0.172368</float>
          <float>0.344736</float>
          <float>0.2528064</float>
          <float>0.176964477</float>
          <float>0.202245116</float>
          <float>0.204978153</float>
          <float>0.204978153</float>
          <float>0.222059667</float>
          <float>0.158004</float>
          <float>0.158004</float>
          <float>0.316008</float>
        </Values>
      </signal>
      <resultNeuronIndex>1</resultNeuronIndex>
    </SampleNeuron>
    <SampleNeuron>
      <signal>
        <Values>
          <float>0.239388883</float>
          <float>0.154444441</float>
          <float>0.189194441</float>
          <float>0.357590377</float>
          <float>0.132152975</float>
          <float>0.09328444</float>
          <float>0.477022737</float>
          <float>0.05300253</float>
          <float>0.05300253</float>
          <float>0.212010115</float>
          <float>0.159007579</float>
          <float>0.212010115</float>
          <float>0.279853344</float>
          <float>0.155474082</float>
          <float>0.147700369</float>
          <float>0.279853344</float>
          <float>0.139926672</float>
          <float>0.163247779</float>
          <float>0.249869063</float>
          <float>0.08328969</float>
          <float>0.249869063</float>
        </Values>
      </signal>
      <resultNeuronIndex>0</resultNeuronIndex>
    </SampleNeuron>
    <SampleNeuron>
      <signal>
        <Values>
          <float>0.204265937</float>
          <float>0.180234656</float>
          <float>0.2202868</float>
          <float>0.2202868</float>
          <float>0.128166869</float>
          <float>0.256333739</float>
          <float>0.219922692</float>
          <float>0.219922692</float>
          <float>0.164942026</float>
          <float>0.164942026</float>
          <float>0.274903357</float>
          <float>0.164942026</float>
          <float>0.1671123</float>
          <float>0.103450477</float>
          <float>0.3342246</float>
          <float>0.241914958</float>
          <float>0.161276653</float>
          <float>0.2015958</float>
          <float>0.453590542</float>
          <float>0.0755984262</float>
          <float>0.0755984262</float>
        </Values>
      </signal>
      <resultNeuronIndex>1</resultNeuronIndex>
    </SampleNeuron>
    <SampleNeuron>
      <signal>
        <Values>
          <float>0.206652671</float>
          <float>0.167290255</float>
          <float>0.236174479</float>
          <float>0.20872438</float>
          <float>0.180626869</float>
          <float>0.220766157</float>
          <float>0.110930443</float>
          <float>0.2773261</float>
          <float>0.221860886</float>
          <float>0.166395664</float>
          <float>0.221860886</float>
          <float>0.221860886</float>
          <float>0.160557225</float>
          <float>0.144501492</float>
          <float>0.305058718</float>
          <float>0.29521808</float>
          <float>0.177130863</float>
          <float>0.137768447</float>
          <float>0</float>
          <float>0.203372478</float>
          <float>0.406744957</float>
        </Values>
      </signal>
      <resultNeuronIndex>0</resultNeuronIndex>
    </SampleNeuron>
    <SampleNeuron>
      <signal>
        <Values>
          <float>0.245993331</float>
          <float>0.137466863</float>
          <float>0.1627897</float>
          <float>0.176209643</float>
          <float>0.132157236</float>
          <float>0.237883031</float>
          <float>0.14897725</float>
          <float>0.09931817</float>
          <float>0.2979545</float>
          <float>0.14897725</float>
          <float>0.14897725</float>
          <float>0.248295426</float>
          <float>0.127458319</float>
          <float>0.07283332</float>
          <float>0.345958263</float>
          <float>0.305899948</float>
          <float>0.123816647</float>
          <float>0.116533317</float>
          <float>0.5462499</float>
          <float>0</float>
          <float>0</float>
        </Values>
      </signal>
      <resultNeuronIndex>2</resultNeuronIndex>
    </SampleNeuron>
    <SampleNeuron>
      <signal>
        <Values>
          <float>0.34541297</float>
          <float>0.08995129</float>
          <float>0.104343496</float>
          <float>0.2230792</float>
          <float>0.143922076</float>
          <float>0.172706485</float>
          <float>0.196257368</float>
          <float>0.14719303</float>
          <float>0.196257368</float>
          <float>0.490643442</float>
          <float>0</float>
          <float>0.0490643419</float>
          <float>0.187098682</float>
          <float>0.158314273</float>
          <float>0.1942948</float>
          <float>0.3957857</float>
          <float>0.07196104</float>
          <float>0.07196104</float>
          <float>0.337317348</float>
          <float>0.2023904</float>
          <float>0</float>
        </Values>
      </signal>
      <resultNeuronIndex>1</resultNeuronIndex>
    </SampleNeuron>
    <SampleNeuron>
      <signal>
        <Values>
          <float>0.334838152</float>
          <float>0.125104353</float>
          <float>0.0919885</float>
          <float>0.168137908</float>
          <float>0.149862051</float>
          <float>0.233931</float>
          <float>0.250877738</float>
          <float>0.150526643</float>
          <float>0.150526643</float>
          <float>0.401404351</float>
          <float>0.0501755439</float>
          <float>0.100351088</float>
          <float>0.125104353</float>
          <float>0.154540673</float>
          <float>0.272285968</float>
          <float>0.412108481</float>
          <float>0.10302712</float>
          <float>0.0367954</float>
          <float>0.413948238</float>
          <float>0.06899137</float>
          <float>0.06899137</float>
        </Values>
      </signal>
      <resultNeuronIndex>0</resultNeuronIndex>
    </SampleNeuron>
    <SampleNeuron>
      <signal>
        <Values>
          <float>0.29855898</float>
          <float>0.163593963</float>
          <float>0.1513244</float>
          <float>0.1758635</float>
          <float>0.188133046</float>
          <float>0.249480784</float>
          <float>0.05577067</float>
          <float>0.278853327</float>
          <float>0.278853327</float>
          <float>0.167312</float>
          <float>0.223082677</float>
          <float>0.223082677</float>
          <float>0.13087517</float>
          <float>0.220851853</float>
          <float>0.26175034</float>
          <float>0.351727</float>
          <float>0.155414253</float>
          <float>0.106336072</float>
          <float>0.306738675</float>
          <float>0.230053991</float>
          <float>0.07668467</float>
        </Values>
      </signal>
      <resultNeuronIndex>0</resultNeuronIndex>
    </SampleNeuron>
    <SampleNeuron>
      <signal>
        <Values>
          <float>0.193447769</float>
          <float>0.164137512</float>
          <float>0.234482154</float>
          <float>0.197355822</float>
          <float>0.140968442</float>
          <float>0.2537432</float>
          <float>0.215297252</float>
          <float>0.053824313</float>
          <float>0.3229459</float>
          <float>0.269121557</float>
          <float>0.215297252</float>
          <float>0.107648626</float>
          <float>0.152791589</float>
          <float>0.0763957947</float>
          <float>0.362880051</float>
          <float>0.220574141</float>
          <float>0.174137488</float>
          <float>0.197355822</float>
          <float>0</float>
          <float>0.394711643</float>
          <float>0.197355822</float>
        </Values>
      </signal>
      <resultNeuronIndex>2</resultNeuronIndex>
    </SampleNeuron>
    <SampleNeuron>
      <signal>
        <Values>
          <float>0.211303532</float>
          <float>0.181721032</float>
          <float>0.240886018</float>
          <float>0.177494973</float>
          <float>0.211303532</float>
          <float>0.245112091</float>
          <float>0.115256473</float>
          <float>0.172884718</float>
          <float>0.345769435</float>
          <float>0.230512947</float>
          <float>0.115256473</float>
          <float>0.2881412</float>
          <float>0.150136724</float>
          <float>0.216864154</float>
          <float>0.266909719</float>
          <float>0.245112091</float>
          <float>0.219755664</float>
          <float>0.169042841</float>
          <float>0.158477649</float>
          <float>0.237716466</float>
          <float>0.237716466</float>
        </Values>
      </signal>
      <resultNeuronIndex>1</resultNeuronIndex>
    </SampleNeuron>
    <SampleNeuron>
      <signal>
        <Values>
          <float>0.213728</float>
          <float>0.176736608</float>
          <float>0.230168611</float>
          <float>0.176125646</float>
          <float>0.1425779</float>
          <float>0.301929682</float>
          <float>0.3385272</float>
          <float>0.1692636</float>
          <float>0.1128424</float>
          <float>0.1128424</float>
          <float>0.2256848</float>
          <float>0.282106</float>
          <float>0.167738691</float>
          <float>0.134190962</float>
          <float>0.318703532</float>
          <float>0.2648035</float>
          <float>0.215152845</float>
          <float>0.140676856</float>
          <float>0.3103166</float>
          <float>0.1551583</float>
          <float>0.1551583</float>
        </Values>
      </signal>
      <resultNeuronIndex>2</resultNeuronIndex>
    </SampleNeuron>
    <SampleNeuron>
      <signal>
        <Values>
          <float>0.311895877</float>
          <float>0.105264865</float>
          <float>0.167644024</float>
          <float>0.204217538</float>
          <float>0.157804474</float>
          <float>0.222782776</float>
          <float>0.212656289</float>
          <float>0.212656289</float>
          <float>0.15949221</float>
          <float>0.318984419</float>
          <float>0.106328145</float>
          <float>0.15949221</float>
          <float>0.113188013</float>
          <float>0.150917351</float>
          <float>0.3206994</float>
          <float>0.377045184</float>
          <float>0.0846428</float>
          <float>0.123116791</float>
          <float>0.194934934</float>
          <float>0</float>
          <float>0.389869869</float>
        </Values>
      </signal>
      <resultNeuronIndex>0</resultNeuronIndex>
    </SampleNeuron>
    <SampleNeuron>
      <signal>
        <Values>
          <float>0.240307733</float>
          <float>0.158774748</float>
          <float>0.244598925</float>
          <float>0.214560479</float>
          <float>0.197395638</float>
          <float>0.23172532</float>
          <float>0.175549477</float>
          <float>0.292582452</float>
          <float>0.175549477</float>
          <float>0.23406598</float>
          <float>0.175549477</float>
          <float>0.23406598</float>
          <float>0.1802308</float>
          <float>0.214560479</float>
          <float>0.248890132</float>
          <float>0.2783487</float>
          <float>0.139174357</float>
          <float>0.226158336</float>
          <float>0.241380528</float>
          <float>0.241380528</float>
          <float>0.160920352</float>
        </Values>
      </signal>
      <resultNeuronIndex>0</resultNeuronIndex>
    </SampleNeuron>
    <SampleNeuron>
      <signal>
        <Values>
          <float>0.282746047</float>
          <float>0.149689078</float>
          <float>0.191269383</float>
          <float>0.201786757</float>
          <float>0.171213016</float>
          <float>0.250704765</float>
          <float>0.226801649</float>
          <float>0.226801649</float>
          <float>0.17010124</float>
          <float>0.113400824</float>
          <float>0.17010124</float>
          <float>0.340202481</float>
          <float>0.174637258</float>
          <float>0.162163168</float>
          <float>0.286904067</float>
          <float>0.349274516</float>
          <float>0.133056968</float>
          <float>0.141373023</float>
          <float>0.249481812</float>
          <float>0.249481812</float>
          <float>0.124740906</float>
        </Values>
      </signal>
      <resultNeuronIndex>1</resultNeuronIndex>
    </SampleNeuron>
    <SampleNeuron>
      <signal>
        <Values>
          <float>0.157470584</float>
          <float>0.1403542</float>
          <float>0.2190895</float>
          <float>0.33082512</float>
          <float>0.08959848</float>
          <float>0.0964906663</float>
          <float>0.4699221</float>
          <float>0.04699221</float>
          <float>0</float>
          <float>0.187968835</float>
          <float>0.140976623</float>
          <float>0.187968835</float>
          <float>0.28639847</float>
          <float>0.104779921</float>
          <float>0.125735909</float>
          <float>0.197243616</float>
          <float>0.136030078</float>
          <float>0.1836406</float>
          <float>0</float>
          <float>0</float>
          <float>0.5169143</float>
        </Values>
      </signal>
      <resultNeuronIndex>2</resultNeuronIndex>
    </SampleNeuron>
    <SampleNeuron>
      <signal>
        <Values>
          <float>0.178116679</float>
          <float>0.137635618</float>
          <float>0.283367425</float>
          <float>0.323524684</float>
          <float>0.107841559</float>
          <float>0.167753533</float>
          <float>0.3267926</float>
          <float>0.108930863</float>
          <float>0.1633963</float>
          <float>0.3267926</float>
          <float>0.1633963</float>
          <float>0.108930863</float>
          <float>0.250982583</float>
          <float>0.1295394</float>
          <float>0.21859774</float>
          <float>0.183064356</float>
          <float>0.149779931</float>
          <float>0.266275436</float>
          <float>0.299559861</float>
          <float>0</float>
          <float>0.299559861</float>
        </Values>
      </signal>
      <resultNeuronIndex>1</resultNeuronIndex>
    </SampleNeuron>
    <SampleNeuron>
      <signal>
        <Values>
          <float>0.167647064</float>
          <float>0.20853658</float>
          <float>0.237159252</float>
          <float>0.224892408</float>
          <float>0.130846485</float>
          <float>0.257604</float>
          <float>0.223033786</float>
          <float>0.223033786</float>
          <float>0.167275339</float>
          <float>0.111516893</float>
          <float>0.223033786</float>
          <float>0.278792232</float>
          <float>0.171736017</float>
          <float>0.106312767</float>
          <float>0.335294127</float>
          <float>0.198922008</float>
          <float>0.198922008</float>
          <float>0.21549885</float>
          <float>0.350481659</float>
          <float>0</float>
          <float>0.262861252</float>
        </Values>
      </signal>
      <resultNeuronIndex>1</resultNeuronIndex>
    </SampleNeuron>
    <SampleNeuron>
      <signal>
        <Values>
          <float>0.212109655</float>
          <float>0.14462021</float>
          <float>0.260316372</float>
          <float>0.208406359</float>
          <float>0.175715163</float>
          <float>0.232924744</float>
          <float>0.0560951158</float>
          <float>0.224380463</float>
          <float>0.33657068</float>
          <float>0.224380463</float>
          <float>0.0560951158</float>
          <float>0.33657068</float>
          <float>0.162380591</float>
          <float>0.1380235</float>
          <float>0.316642165</float>
          <float>0.250675052</float>
          <float>0.212109655</float>
          <float>0.154261559</float>
          <float>0.205682084</float>
          <float>0.205682084</float>
          <float>0.205682084</float>
        </Values>
      </signal>
      <resultNeuronIndex>0</resultNeuronIndex>
    </SampleNeuron>
    <SampleNeuron>
      <signal>
        <Values>
          <float>0.198792174</float>
          <float>0.153612137</float>
          <float>0.225900188</float>
          <float>0.350838065</float>
          <float>0.131082356</float>
          <float>0.0963840857</float>
          <float>0.4205851</float>
          <float>0.052573137</float>
          <float>0.105146274</float>
          <float>0.210292548</float>
          <float>0.157719418</float>
          <float>0.210292548</float>
          <float>0.269875437</float>
          <float>0.154214546</float>
          <float>0.154214546</float>
          <float>0.289152235</float>
          <float>0.162648141</float>
          <float>0.126504108</float>
          <float>0</float>
          <float>0.192768171</float>
          <float>0.385536343</float>
        </Values>
      </signal>
      <resultNeuronIndex>2</resultNeuronIndex>
    </SampleNeuron>
    <SampleNeuron>
      <signal>
        <Values>
          <float>0.2603354</float>
          <float>0.174979523</float>
          <float>0.204854071</float>
          <float>0.311548918</float>
          <float>0.170711741</float>
          <float>0.15790835</float>
          <float>0.232788727</float>
          <float>0.232788727</float>
          <float>0.174591541</float>
          <float>0.174591541</float>
          <float>0.232788727</float>
          <float>0.232788727</float>
          <float>0.2560676</float>
          <float>0.17924732</float>
          <float>0.204854071</float>
          <float>0.302782625</float>
          <float>0.155716777</float>
          <float>0.181669578</float>
          <float>0.182905436</float>
          <float>0.274358153</float>
          <float>0.182905436</float>
        </Values>
      </signal>
      <resultNeuronIndex>0</resultNeuronIndex>
    </SampleNeuron>
    <SampleNeuron>
      <signal>
        <Values>
          <float>0.181468</float>
          <float>0.194128558</float>
          <float>0.257431358</float>
          <float>0.211009309</float>
          <float>0.185688183</float>
          <float>0.23633042</float>
          <float>0.230191976</float>
          <float>0.172643974</float>
          <float>0.230191976</float>
          <float>0.057547994</float>
          <float>0.287739962</float>
          <float>0.287739962</float>
          <float>0.179643065</float>
          <float>0.145425335</float>
          <float>0.307959527</float>
          <float>0.227890059</float>
          <float>0.160367072</float>
          <float>0.24477078</float>
          <float>0.237385467</float>
          <float>0.158256978</float>
          <float>0.237385467</float>
        </Values>
      </signal>
      <resultNeuronIndex>1</resultNeuronIndex>
    </SampleNeuron>
    <SampleNeuron>
      <signal>
        <Values>
          <float>0.316004336</float>
          <float>0.110601507</float>
          <float>0.165902272</float>
          <float>0.209656715</float>
          <float>0.136732638</float>
          <float>0.246118739</float>
          <float>0.269321859</float>
          <float>0.0538643748</float>
          <float>0.269321859</float>
          <float>0.323186249</float>
          <float>0.10772875</float>
          <float>0.161593124</float>
          <float>0.1666429</float>
          <float>0.07406351</float>
          <float>0.351801664</float>
          <float>0.38980794</float>
          <float>0.08575775</float>
          <float>0.116942391</float>
          <float>0.1975027</float>
          <float>0.1975027</float>
          <float>0.1975027</float>
        </Values>
      </signal>
      <resultNeuronIndex>0</resultNeuronIndex>
    </SampleNeuron>
    <SampleNeuron>
      <signal>
        <Values>
          <float>0.279791921</float>
          <float>0.153310642</float>
          <float>0.145645112</float>
          <float>0.1736243</float>
          <float>0.15819104</float>
          <float>0.246932358</float>
          <float>0.157840282</float>
          <float>0.157840282</float>
          <float>0.263067126</float>
          <float>0.2104537</float>
          <float>0.2104537</float>
          <float>0.157840282</float>
          <float>0.13118282</float>
          <float>0.162049353</float>
          <float>0.285515517</float>
          <float>0.331815332</float>
          <float>0.146616071</float>
          <float>0.100316264</float>
          <float>0.5064042</float>
          <float>0.07234346</float>
          <float>0</float>
        </Values>
      </signal>
      <resultNeuronIndex>0</resultNeuronIndex>
    </SampleNeuron>
    <SampleNeuron>
      <signal>
        <Values>
          <float>0.228268236</float>
          <float>0.136960953</float>
          <float>0.261470884</float>
          <float>0.179654017</float>
          <float>0.192188025</float>
          <float>0.254858017</float>
          <float>0.0569727346</float>
          <float>0.341836423</float>
          <float>0.227890939</float>
          <float>0.170918211</float>
          <float>0.284863681</float>
          <float>0.170918211</float>
          <float>0.13369602</float>
          <float>0.225612029</float>
          <float>0.267392039</float>
          <float>0.284104049</float>
          <float>0.15876402</float>
          <float>0.18383202</float>
          <float>0.235012531</float>
          <float>0.156675026</float>
          <float>0.235012531</float>
        </Values>
      </signal>
      <resultNeuronIndex>0</resultNeuronIndex>
    </SampleNeuron>
    <SampleNeuron>
      <signal>
        <Values>
          <float>0.202459648</float>
          <float>0.174115285</float>
          <float>0.230803981</float>
          <float>0.194597125</float>
          <float>0.171009585</float>
          <float>0.2417722</float>
          <float>0.220865071</float>
          <float>0.276081324</float>
          <float>0.110432535</float>
          <float>0.0552162677</float>
          <float>0.220865071</float>
          <float>0.3312976</float>
          <float>0.166731477</float>
          <float>0.166731477</float>
          <float>0.273915976</float>
          <float>0.251049936</float>
          <float>0.210558027</float>
          <float>0.145770937</float>
          <float>0.242951572</float>
          <float>0.364427358</float>
          <float>0</float>
        </Values>
      </signal>
      <resultNeuronIndex>0</resultNeuronIndex>
    </SampleNeuron>
    <SampleNeuron>
      <signal>
        <Values>
          <float>0.352517515</float>
          <float>0.0954735</float>
          <float>0.102817617</float>
          <float>0.186427549</float>
          <float>0.144057646</float>
          <float>0.220323458</float>
          <float>0.200294062</float>
          <float>0.150220543</float>
          <float>0.200294062</float>
          <float>0.500735164</float>
          <float>0.0500735156</float>
          <float>0</float>
          <float>0.103276618</float>
          <float>0.137702167</float>
          <float>0.309829861</float>
          <float>0.396582246</float>
          <float>0.08078527</float>
          <float>0.0734411553</float>
          <float>0.183602884</float>
          <float>0.183602884</float>
          <float>0.183602884</float>
        </Values>
      </signal>
      <resultNeuronIndex>0</resultNeuronIndex>
    </SampleNeuron>
    <SampleNeuron>
      <signal>
        <Values>
          <float>0.330243826</float>
          <float>0.1233878</float>
          <float>0.09072632</float>
          <float>0.161836147</float>
          <float>0.132411391</float>
          <float>0.2501104</float>
          <float>0.2969225</float>
          <float>0.148461252</float>
          <float>0.0989741758</float>
          <float>0.3958967</float>
          <float>0.0494870879</float>
          <float>0.0989741758</float>
          <float>0.161836147</float>
          <float>0.117699012</float>
          <float>0.264822781</float>
          <float>0.406453937</float>
          <float>0.101613484</float>
          <float>0.03629053</float>
          <float>0.408268452</float>
          <float>0.136089489</float>
          <float>0</float>
        </Values>
      </signal>
      <resultNeuronIndex>0</resultNeuronIndex>
    </SampleNeuron>
    <SampleNeuron>
      <signal>
        <Values>
          <float>0.214642823</float>
          <float>0.193178549</float>
          <float>0.236107111</float>
          <float>0.2661571</float>
          <float>0.171714261</float>
          <float>0.2060571</float>
          <float>0.17561686</float>
          <float>0.2341558</float>
          <float>0.2341558</float>
          <float>0.2341558</float>
          <float>0.17561686</float>
          <float>0.2341558</float>
          <float>0.223228529</float>
          <float>0.188885674</float>
          <float>0.23181425</float>
          <float>0.248985663</float>
          <float>0.23181425</float>
          <float>0.16312854</float>
          <float>0.160982117</float>
          <float>0.321964234</float>
          <float>0.160982117</float>
        </Values>
      </signal>
      <resultNeuronIndex>0</resultNeuronIndex>
    </SampleNeuron>
    <SampleNeuron>
      <signal>
        <Values>
          <float>0.194002688</float>
          <float>0.182124987</float>
          <float>0.217758134</float>
          <float>0.265268981</float>
          <float>0.14649184</float>
          <float>0.182124987</float>
          <float>0.107979245</float>
          <float>0.215958491</float>
          <float>0.2699481</float>
          <float>0.215958491</float>
          <float>0.161968857</float>
          <float>0.215958491</float>
          <float>0.205880418</float>
          <float>0.158369556</float>
          <float>0.229635835</float>
          <float>0.229635835</float>
          <float>0.166288033</float>
          <float>0.197961941</float>
          <float>0.509045</float>
          <float>0.0848408341</float>
          <float>0</float>
        </Values>
      </signal>
      <resultNeuronIndex>2</resultNeuronIndex>
    </SampleNeuron>
    <SampleNeuron>
      <signal>
        <Values>
          <float>0.234341472</float>
          <float>0.154832765</float>
          <float>0.238526136</float>
          <float>0.16738677</float>
          <float>0.2176028</float>
          <float>0.242710814</float>
          <float>0.114127345</float>
          <float>0.285318375</float>
          <float>0.228254691</float>
          <float>0.228254691</float>
          <float>0.171191022</float>
          <float>0.228254691</float>
          <float>0.140406668</float>
          <float>0.222998813</float>
          <float>0.2642949</float>
          <float>0.279920429</float>
          <float>0.135719</float>
          <float>0.212060943</float>
          <float>0.358685941</float>
          <float>0.17934297</float>
          <float>0.0896714851</float>
        </Values>
      </signal>
      <resultNeuronIndex>1</resultNeuronIndex>
    </SampleNeuron>
    <SampleNeuron>
      <signal>
        <Values>
          <float>0.1527101</float>
          <float>0.118003249</float>
          <float>0.242947862</float>
          <float>0.32874316</float>
          <float>0.08903461</float>
          <float>0.09588343</float>
          <float>0.466964751</float>
          <float>0.0466964766</float>
          <float>0</float>
          <float>0.233482376</float>
          <float>0.140089422</float>
          <float>0.140089422</float>
          <float>0.2845961</float>
          <float>0.104120515</float>
          <float>0.12494462</float>
          <float>0.156952038</float>
          <float>0.1284153</float>
          <float>0.228293881</float>
          <float>0</float>
          <float>0</float>
          <float>0.5136612</float>
        </Values>
      </signal>
      <resultNeuronIndex>2</resultNeuronIndex>
    </SampleNeuron>
    <SampleNeuron>
      <signal>
        <Values>
          <float>0.199131414</float>
          <float>0.129868314</float>
          <float>0.242420867</float>
          <float>0.3504713</float>
          <float>0.125712529</float>
          <float>0.09523677</float>
          <float>0.415578634</float>
          <float>0.05194733</float>
          <float>0.103894658</float>
          <float>0.259736627</float>
          <float>0.05194733</float>
          <float>0.259736627</float>
          <float>0.266662955</float>
          <float>0.152378827</float>
          <float>0.152378827</float>
          <float>0.242420867</float>
          <float>0.190473542</float>
          <float>0.1385262</float>
          <float>0</float>
          <float>0.190473542</float>
          <float>0.380947083</float>
        </Values>
      </signal>
      <resultNeuronIndex>2</resultNeuronIndex>
    </SampleNeuron>
    <SampleNeuron>
      <signal>
        <Values>
          <float>0.211613983</float>
          <float>0.163519874</float>
          <float>0.259708047</float>
          <float>0.306910336</float>
          <float>0.168170035</float>
          <float>0.159761548</float>
          <float>0.2885645</float>
          <float>0.2308516</float>
          <float>0.1154258</float>
          <float>0.173138708</float>
          <float>0.173138708</float>
          <float>0.2885645</float>
          <float>0.2505955</float>
          <float>0.175416842</float>
          <float>0.208829567</float>
          <float>0.307802141</float>
          <float>0.173138708</float>
          <float>0.15390107</float>
          <float>0.211613983</float>
          <float>0.211613983</float>
          <float>0.211613983</float>
        </Values>
      </signal>
      <resultNeuronIndex>0</resultNeuronIndex>
    </SampleNeuron>
    <SampleNeuron>
      <signal>
        <Values>
          <float>0.175498679</float>
          <float>0.154226109</float>
          <float>0.223361969</float>
          <float>0.294979632</float>
          <float>0.103242867</float>
          <float>0.1548643</float>
          <float>0.3519643</float>
          <float>0.05028062</float>
          <float>0.150841847</float>
          <float>0.150841847</float>
          <float>0.2514031</float>
          <float>0.150841847</float>
          <float>0.224224374</float>
          <float>0.127060473</float>
          <float>0.201801926</float>
          <float>0.2020894</float>
          <float>0.159544259</float>
          <float>0.191453114</float>
          <float>0</float>
          <float>0</float>
          <float>0.553086758</float>
        </Values>
      </signal>
      <resultNeuronIndex>2</resultNeuronIndex>
    </SampleNeuron>
    <SampleNeuron>
      <signal>
        <Values>
          <float>0.190135255</float>
          <float>0.173234344</float>
          <float>0.2704146</float>
          <float>0.215486616</float>
          <float>0.190135255</float>
          <float>0.2281623</float>
          <float>0.2880837</float>
          <float>0.172850236</float>
          <float>0.172850236</float>
          <float>0.172850236</float>
          <float>0.115233488</float>
          <float>0.345700473</float>
          <float>0.179857671</float>
          <float>0.154163718</float>
          <float>0.299762756</float>
          <float>0.236612752</float>
          <float>0.169009119</float>
          <float>0.2281623</float>
          <float>0.237669066</float>
          <float>0.237669066</float>
          <float>0.158446044</float>
        </Values>
      </signal>
      <resultNeuronIndex>0</resultNeuronIndex>
    </SampleNeuron>
    <SampleNeuron>
      <signal>
        <Values>
          <float>0.255059123</float>
          <float>0.167251885</float>
          <float>0.204883546</float>
          <float>0.232601956</float>
          <float>0.137069017</float>
          <float>0.2575236</float>
          <float>0.228070751</float>
          <float>0.228070751</float>
          <float>0.171053067</float>
          <float>0.171053067</float>
          <float>0.228070751</float>
          <float>0.228070751</float>
          <float>0.175614476</float>
          <float>0.117076315</float>
          <float>0.33450377</float>
          <float>0.296646059</float>
          <float>0.152560845</float>
          <float>0.17798765</float>
          <float>0.235197961</float>
          <float>0.07839932</float>
          <float>0.3135973</float>
        </Values>
      </signal>
      <resultNeuronIndex>2</resultNeuronIndex>
    </SampleNeuron>
    <SampleNeuron>
      <signal>
        <Values>
          <float>0.282324582</float>
          <float>0.149465948</float>
          <float>0.190984264</float>
          <float>0.211743429</float>
          <float>0.174376935</float>
          <float>0.236654416</float>
          <float>0.113231778</float>
          <float>0.226463556</float>
          <float>0.283079445</float>
          <float>0.113231778</float>
          <float>0.226463556</float>
          <float>0.283079445</float>
          <float>0.159901634</float>
          <float>0.134654</float>
          <float>0.328219116</float>
          <float>0.340450227</float>
          <float>0.141162291</float>
          <float>0.141162291</float>
          <float>0.2669035</float>
          <float>0.17793566</float>
          <float>0.17793566</float>
        </Values>
      </signal>
      <resultNeuronIndex>0</resultNeuronIndex>
    </SampleNeuron>
    <SampleNeuron>
      <signal>
        <Values>
          <float>0.174829647</float>
          <float>0.191480085</float>
          <float>0.258081853</float>
          <float>0.228943586</float>
          <float>0.158179209</float>
          <float>0.2372688</float>
          <float>0.170288622</float>
          <float>0.2270515</float>
          <float>0.2270515</float>
          <float>0.0567628741</float>
          <float>0.283814371</float>
          <float>0.283814371</float>
          <float>0.183154866</float>
          <float>0.174829647</float>
          <float>0.266407073</float>
          <float>0.224780977</float>
          <float>0.158179209</float>
          <float>0.241431415</float>
          <float>0.178397611</float>
          <float>0.0891988054</float>
          <float>0.356795222</float>
        </Values>
      </signal>
      <resultNeuronIndex>0</resultNeuronIndex>
    </SampleNeuron>
    <SampleNeuron>
      <signal>
        <Values>
          <float>0.3382209</float>
          <float>0.120013863</float>
          <float>0.08728281</float>
          <float>0.17144838</float>
          <float>0.150666758</float>
          <float>0.223402441</float>
          <float>0.14877753</float>
          <float>0.198370025</float>
          <float>0.198370025</float>
          <float>0.396740049</float>
          <float>0.0495925061</float>
          <float>0.09918501</float>
          <float>0.146870121</float>
          <float>0.146870121</float>
          <float>0.251777351</float>
          <float>0.414593339</float>
          <float>0.09455638</float>
          <float>0.03636784</float>
          <float>0.436414063</float>
          <float>0.109103516</float>
          <float>0</float>
        </Values>
      </signal>
      <resultNeuronIndex>0</resultNeuronIndex>
    </SampleNeuron>
    <SampleNeuron>
      <signal>
        <Values>
          <float>0.2918482</float>
          <float>0.1559189</float>
          <float>0.1559189</float>
          <float>0.17947422</float>
          <float>0.1305267</float>
          <float>0.2936851</float>
          <float>0.2195222</float>
          <float>0.164641649</float>
          <float>0.2195222</float>
          <float>0.274402738</float>
          <float>0.164641649</float>
          <float>0.164641649</float>
          <float>0.17947422</float>
          <float>0.114210874</float>
          <float>0.310000926</float>
          <float>0.346113324</float>
          <float>0.152933791</float>
          <float>0.104638912</float>
          <float>0.301843017</float>
          <float>0.301843017</float>
          <float>0</float>
        </Values>
      </signal>
      <resultNeuronIndex>2</resultNeuronIndex>
    </SampleNeuron>
    <SampleNeuron>
      <signal>
        <Values>
          <float>0.315472722</float>
          <float>0.110415444</float>
          <float>0.165623158</float>
          <float>0.197170436</float>
          <float>0.165623158</float>
          <float>0.2287177</float>
          <float>0.107547514</float>
          <float>0.215095028</float>
          <float>0.268868774</float>
          <float>0.376416266</float>
          <float>0.0537737571</float>
          <float>0.161321267</float>
          <float>0.149849534</float>
          <float>0.126189083</float>
          <float>0.315472722</float>
          <float>0.389152169</float>
          <float>0.0856134742</float>
          <float>0.116745658</float>
          <float>0.295755655</float>
          <float>0.147877827</float>
          <float>0.147877827</float>
        </Values>
      </signal>
      <resultNeuronIndex>2</resultNeuronIndex>
    </SampleNeuron>
    <SampleNeuron>
      <signal>
        <Values>
          <float>0.205657884</float>
          <float>0.181462854</float>
          <float>0.217755422</float>
          <float>0.20764406</float>
          <float>0.15347603</float>
          <float>0.243756056</float>
          <float>0.219954967</float>
          <float>0.109977484</float>
          <float>0.2749437</float>
          <float>0.2749437</float>
          <float>0.164966226</float>
          <float>0.164966226</float>
          <float>0.109977484</float>
          <float>0.14663665</float>
          <float>0.348262</float>
          <float>0.241950452</float>
          <float>0.217755422</float>
          <float>0.145170271</float>
          <float>0</float>
          <float>0.403250784</float>
          <float>0.201625392</float>
        </Values>
      </signal>
      <resultNeuronIndex>0</resultNeuronIndex>
    </SampleNeuron>
    <SampleNeuron>
      <signal>
        <Values>
          <float>0.2320906</float>
          <float>0.136767685</float>
          <float>0.256957442</float>
          <float>0.187744722</float>
          <float>0.1710563</float>
          <float>0.2670147</float>
          <float>0.170677021</float>
          <float>0.113784678</float>
          <float>0.341354042</float>
          <float>0.2844617</float>
          <float>0.227569357</float>
          <float>0.113784678</float>
          <float>0.141851574</float>
          <float>0.1752284</float>
          <float>0.308735758</float>
          <float>0.283703148</float>
          <float>0.158539981</float>
          <float>0.1835726</float>
          <float>0.268206745</float>
          <float>0.1788045</float>
          <float>0.1788045</float>
        </Values>
      </signal>
      <resultNeuronIndex>0</resultNeuronIndex>
    </SampleNeuron>
    <SampleNeuron>
      <signal>
        <Values>
          <float>0.227725282</float>
          <float>0.153197</float>
          <float>0.240146652</float>
          <float>0.252568036</float>
          <float>0.16561839</float>
          <float>0.202882513</float>
          <float>0.169382438</float>
          <float>0.225843251</float>
          <float>0.225843251</float>
          <float>0.169382438</float>
          <float>0.225843251</float>
          <float>0.225843251</float>
          <float>0.2153039</float>
          <float>0.182180211</float>
          <float>0.223584831</float>
          <float>0.276963174</float>
          <float>0.134285182</float>
          <float>0.2098206</float>
          <float>0.232900858</float>
          <float>0</float>
          <float>0.3881681</float>
        </Values>
      </signal>
      <resultNeuronIndex>2</resultNeuronIndex>
    </SampleNeuron>
    <SampleNeuron>
      <signal>
        <Values>
          <float>0.345396131</float>
          <float>0.09354479</float>
          <float>0.100740544</float>
          <float>0.1852638</float>
          <float>0.12082421</float>
          <float>0.233593464</float>
          <float>0.24530977</float>
          <float>0.049061954</float>
          <float>0.24530977</float>
          <float>0.49061954</float>
          <float>0.049061954</float>
          <float>0</float>
          <float>0.147185862</float>
          <float>0.06541594</float>
          <float>0.327079684</float>
          <float>0.388570666</float>
          <float>0.07915328</float>
          <float>0.071957536</float>
          <float>0.179893821</float>
          <float>0.179893821</float>
          <float>0.179893821</float>
        </Values>
      </signal>
      <resultNeuronIndex>0</resultNeuronIndex>
    </SampleNeuron>
    <SampleNeuron>
      <signal>
        <Values>
          <float>0.206038848</float>
          <float>0.189555749</float>
          <float>0.222521961</float>
          <float>0.164831087</float>
          <float>0.2142804</float>
          <float>0.239005059</float>
          <float>0.112384833</float>
          <float>0.393346876</float>
          <float>0.112384833</float>
          <float>0.224769667</float>
          <float>0.112384833</float>
          <float>0.28096208</float>
          <float>0.138262913</float>
          <float>0.219594032</float>
          <float>0.2602596</float>
          <float>0.239005059</float>
          <float>0.173072636</float>
          <float>0.206038848</float>
          <float>0.07726457</float>
          <float>0.309058279</float>
          <float>0.2317937</float>
        </Values>
      </signal>
      <resultNeuronIndex>2</resultNeuronIndex>
    </SampleNeuron>
    <SampleNeuron>
      <signal>
        <Values>
          <float>0.187659219</float>
          <float>0.136479437</float>
          <float>0.307078719</float>
          <float>0.218822017</float>
          <float>0.18515709</float>
          <float>0.227238268</float>
          <float>0.3443004</float>
          <float>0.1721502</float>
          <float>0.1147668</float>
          <float>0.2295336</float>
          <float>0.1721502</float>
          <float>0.2295336</float>
          <float>0.17674087</float>
          <float>0.151492164</float>
          <float>0.302984327</float>
          <float>0.187659219</float>
          <float>0.15353936</float>
          <float>0.2900188</float>
          <float>0.2104058</float>
          <float>0.2104058</float>
          <float>0.2104058</float>
        </Values>
      </signal>
      <resultNeuronIndex>1</resultNeuronIndex>
    </SampleNeuron>
    <SampleNeuron>
      <signal>
        <Values>
          <float>0.202900782</float>
          <float>0.167094752</float>
          <float>0.226771459</float>
          <float>0.369995534</float>
          <float>0.131288737</float>
          <float>0.0954827145</float>
          <float>0.434012383</float>
          <float>0.0542515479</float>
          <float>0.108503096</float>
          <float>0.16275464</float>
          <float>0.217006192</float>
          <float>0.217006192</float>
          <float>0.286448151</float>
          <float>0.159137875</float>
          <float>0.151180968</float>
          <float>0.24666369</float>
          <float>0.206879228</float>
          <float>0.143224075</float>
          <float>0.085252434</float>
          <float>0.255757272</float>
          <float>0.255757272</float>
        </Values>
      </signal>
      <resultNeuronIndex>2</resultNeuronIndex>
    </SampleNeuron>
    <SampleNeuron>
      <signal>
        <Values>
          <float>0.184170946</float>
          <float>0.171613842</float>
          <float>0.272070736</float>
          <float>0.230213687</float>
          <float>0.154871032</float>
          <float>0.242770791</float>
          <float>0.171233326</float>
          <float>0.2283111</float>
          <float>0.2283111</float>
          <float>0.114155553</float>
          <float>0.114155553</float>
          <float>0.399544418</float>
          <float>0.184170946</float>
          <float>0.175799549</float>
          <float>0.267885029</float>
          <float>0.2343994</float>
          <float>0.167428151</float>
          <float>0.226028</float>
          <float>0.1793873</float>
          <float>0.1793873</float>
          <float>0.269080937</float>
        </Values>
      </signal>
      <resultNeuronIndex>2</resultNeuronIndex>
    </SampleNeuron>
    <SampleNeuron>
      <signal>
        <Values>
          <float>0.167620748</float>
          <float>0.147303089</float>
          <float>0.223494336</float>
          <float>0.344587624</float>
          <float>0.0933258161</float>
          <float>0.100504726</float>
          <float>0.489471078</float>
          <float>0.048947107</float>
          <float>0</float>
          <float>0.0978942141</float>
          <float>0.195788428</float>
          <float>0.244735539</float>
          <float>0.298312783</float>
          <float>0.109138817</float>
          <float>0.130966589</float>
          <float>0.193017825</float>
          <float>0.1523825</float>
          <float>0.193017825</float>
          <float>0.107683636</float>
          <float>0</float>
          <float>0.430734545</float>
        </Values>
      </signal>
      <resultNeuronIndex>2</resultNeuronIndex>
    </SampleNeuron>
    <SampleNeuron>
      <signal>
        <Values>
          <float>0.176251814</float>
          <float>0.188548461</float>
          <float>0.25003165</float>
          <float>0.20494397</float>
          <float>0.188548461</float>
          <float>0.2213395</float>
          <float>0.167681441</float>
